=== Run information ===

Scheme:       weka.classifiers.trees.RandomTree -K 0 -M 1.0 -V 0.001 -S 1
Relation:     inflection_verbs-weka.filters.unsupervised.attribute.Remove-R9-weka.filters.unsupervised.attribute.StringToNominal-R8-weka.filters.unsupervised.attribute.StringToWordVector-R2,3-W1000-prune-rate-1.0-N0-stemmerweka.core.stemmers.NullStemmer-stopwords-handlerweka.core.stopwords.Null-M1-tokenizerweka.core.tokenizers.WordTokenizer -delimiters " \r\n\t.,;:\'\"()?!"
Instances:    682
Attributes:   18
              ending
              person
              number
              tense
              mood
              suff1
              ANY
              g
              i
              u
              NULL
              and
              desand
              d
              ca
              e
              ñ
              v
Test mode:    evaluate on training data

=== Classifier model (full training set) ===


RandomTree
==========

person = 0
|   ANY < 0.5
|   |   tense = 0
|   |   |   and < 0.5
|   |   |   |   desand < 0.5 : dar (1/0)
|   |   |   |   desand >= 0.5 : desandar (1/0)
|   |   |   and >= 0.5 : andar (1/0)
|   |   tense = 1
|   |   |   desand < 0.5
|   |   |   |   and < 0.5 : dado (1/0)
|   |   |   |   and >= 0.5 : andado (1/0)
|   |   |   desand >= 0.5 : desandado (1/0)
|   |   tense = 2
|   |   |   desand < 0.5
|   |   |   |   and < 0.5 : dando (1/0)
|   |   |   |   and >= 0.5 : andando (1/0)
|   |   |   desand >= 0.5 : desandando (1/0)
|   |   tense = 3 : o (0/0)
|   |   tense = 4 : o (0/0)
|   ANY >= 0.5
|   |   ending = ar
|   |   |   tense = 0
|   |   |   |   i < 0.5
|   |   |   |   |   u < 0.5
|   |   |   |   |   |   g < 0.5 : ar (1/0)
|   |   |   |   |   |   g >= 0.5 : gar (1/0)
|   |   |   |   |   u >= 0.5 : uar (1/0)
|   |   |   |   i >= 0.5 : iar (1/0)
|   |   |   tense = 1
|   |   |   |   i < 0.5
|   |   |   |   |   u < 0.5
|   |   |   |   |   |   g < 0.5 : ado (1/0)
|   |   |   |   |   |   g >= 0.5 : gado (1/0)
|   |   |   |   |   u >= 0.5 : uado (1/0)
|   |   |   |   i >= 0.5 : iado (1/0)
|   |   |   tense = 2
|   |   |   |   g < 0.5
|   |   |   |   |   i < 0.5
|   |   |   |   |   |   u < 0.5 : ando (1/0)
|   |   |   |   |   |   u >= 0.5 : uando (1/0)
|   |   |   |   |   i >= 0.5 : iando (1/0)
|   |   |   |   g >= 0.5 : gando (1/0)
|   |   |   tense = 3 : o (0/0)
|   |   |   tense = 4 : o (0/0)
|   |   ending = er
|   |   |   e < 0.5
|   |   |   |   tense = 0
|   |   |   |   |   ñ < 0.5
|   |   |   |   |   |   ca < 0.5
|   |   |   |   |   |   |   v < 0.5 : er (1/0)
|   |   |   |   |   |   |   v >= 0.5 : ver (1/0)
|   |   |   |   |   |   ca >= 0.5 : caer (1/0)
|   |   |   |   |   ñ >= 0.5 : ñer (1/0)
|   |   |   |   tense = 1
|   |   |   |   |   ca < 0.5
|   |   |   |   |   |   ñ < 0.5
|   |   |   |   |   |   |   v < 0.5 : ido (1/0)
|   |   |   |   |   |   |   v >= 0.5 : visto (1/0)
|   |   |   |   |   |   ñ >= 0.5 : ñido (1/0)
|   |   |   |   |   ca >= 0.5 : caído (1/0)
|   |   |   |   tense = 2
|   |   |   |   |   ñ < 0.5
|   |   |   |   |   |   ca < 0.5
|   |   |   |   |   |   |   v < 0.5 : iendo (1/0)
|   |   |   |   |   |   |   v >= 0.5 : viendo (1/0)
|   |   |   |   |   |   ca >= 0.5 : cayendo (1/0)
|   |   |   |   |   ñ >= 0.5 : ñendo (1/0)
|   |   |   |   tense = 3 : o (0/0)
|   |   |   |   tense = 4 : o (0/0)
|   |   |   e >= 0.5
|   |   |   |   tense = 0 : eer (1/0)
|   |   |   |   tense = 1 : eído (1/0)
|   |   |   |   tense = 2 : eyendo (1/0)
|   |   |   |   tense = 3 : o (0/0)
|   |   |   |   tense = 4 : o (0/0)
|   |   ending = ir
|   |   |   tense = 0 : ir (1/0)
|   |   |   tense = 1 : ido (1/0)
|   |   |   tense = 2 : iendo (1/0)
|   |   |   tense = 3 : o (0/0)
|   |   |   tense = 4 : o (0/0)
person = 1
|   mood = 0
|   |   and < 0.5
|   |   |   ANY < 0.5
|   |   |   |   d < 0.5
|   |   |   |   |   number = 0
|   |   |   |   |   |   tense = 0 : desando (1/0)
|   |   |   |   |   |   tense = 1 : desandaba (1/0)
|   |   |   |   |   |   tense = 2 : desandaré (1/0)
|   |   |   |   |   |   tense = 3 : o (0/0)
|   |   |   |   |   |   tense = 4 : desandaría (1/0)
|   |   |   |   |   number = 1
|   |   |   |   |   |   tense = 0 : desandamos (1/0)
|   |   |   |   |   |   tense = 1 : desandábamos (1/0)
|   |   |   |   |   |   tense = 2 : desandaremos (1/0)
|   |   |   |   |   |   tense = 3 : o (0/0)
|   |   |   |   |   |   tense = 4 : desandaríamos (1/0)
|   |   |   |   d >= 0.5
|   |   |   |   |   tense = 0
|   |   |   |   |   |   number = 0 : doy (1/0)
|   |   |   |   |   |   number = 1 : damos (1/0)
|   |   |   |   |   tense = 1
|   |   |   |   |   |   number = 0 : daba (1/0)
|   |   |   |   |   |   number = 1 : dábamos (1/0)
|   |   |   |   |   tense = 2
|   |   |   |   |   |   number = 0 : daré (1/0)
|   |   |   |   |   |   number = 1 : daremos (1/0)
|   |   |   |   |   tense = 3
|   |   |   |   |   |   number = 0 : di (1/0)
|   |   |   |   |   |   number = 1 : dimos (1/0)
|   |   |   |   |   tense = 4
|   |   |   |   |   |   number = 0 : daría (1/0)
|   |   |   |   |   |   number = 1 : daríamos (1/0)
|   |   |   ANY >= 0.5
|   |   |   |   u < 0.5
|   |   |   |   |   g < 0.5
|   |   |   |   |   |   ending = ar
|   |   |   |   |   |   |   number = 0
|   |   |   |   |   |   |   |   tense = 0
|   |   |   |   |   |   |   |   |   i < 0.5 : o (1/0)
|   |   |   |   |   |   |   |   |   i >= 0.5 : io (1/0)
|   |   |   |   |   |   |   |   tense = 1
|   |   |   |   |   |   |   |   |   i < 0.5 : aba (1/0)
|   |   |   |   |   |   |   |   |   i >= 0.5 : iaba (1/0)
|   |   |   |   |   |   |   |   tense = 2
|   |   |   |   |   |   |   |   |   i < 0.5 : aré (1/0)
|   |   |   |   |   |   |   |   |   i >= 0.5 : iaré (1/0)
|   |   |   |   |   |   |   |   tense = 3
|   |   |   |   |   |   |   |   |   i < 0.5 : é (1/0)
|   |   |   |   |   |   |   |   |   i >= 0.5 : ié (1/0)
|   |   |   |   |   |   |   |   tense = 4
|   |   |   |   |   |   |   |   |   i < 0.5 : aría (1/0)
|   |   |   |   |   |   |   |   |   i >= 0.5 : iaría (1/0)
|   |   |   |   |   |   |   number = 1
|   |   |   |   |   |   |   |   tense = 0
|   |   |   |   |   |   |   |   |   i < 0.5 : amos (1/0)
|   |   |   |   |   |   |   |   |   i >= 0.5 : iamos (1/0)
|   |   |   |   |   |   |   |   tense = 1
|   |   |   |   |   |   |   |   |   i < 0.5 : ábamos (1/0)
|   |   |   |   |   |   |   |   |   i >= 0.5 : iábamos (1/0)
|   |   |   |   |   |   |   |   tense = 2
|   |   |   |   |   |   |   |   |   i < 0.5 : aremos (1/0)
|   |   |   |   |   |   |   |   |   i >= 0.5 : iaremos (1/0)
|   |   |   |   |   |   |   |   tense = 3
|   |   |   |   |   |   |   |   |   i < 0.5 : amos (1/0)
|   |   |   |   |   |   |   |   |   i >= 0.5 : iamos (1/0)
|   |   |   |   |   |   |   |   tense = 4
|   |   |   |   |   |   |   |   |   i < 0.5 : aríamos (1/0)
|   |   |   |   |   |   |   |   |   i >= 0.5 : iaríamos (1/0)
|   |   |   |   |   |   ending = er
|   |   |   |   |   |   |   ca < 0.5
|   |   |   |   |   |   |   |   tense = 0
|   |   |   |   |   |   |   |   |   number = 0
|   |   |   |   |   |   |   |   |   |   e < 0.5
|   |   |   |   |   |   |   |   |   |   |   v < 0.5
|   |   |   |   |   |   |   |   |   |   |   |   ñ < 0.5 : o (1/0)
|   |   |   |   |   |   |   |   |   |   |   |   ñ >= 0.5 : ño (1/0)
|   |   |   |   |   |   |   |   |   |   |   v >= 0.5 : veo (1/0)
|   |   |   |   |   |   |   |   |   |   e >= 0.5 : eo (1/0)
|   |   |   |   |   |   |   |   |   number = 1
|   |   |   |   |   |   |   |   |   |   ñ < 0.5
|   |   |   |   |   |   |   |   |   |   |   v < 0.5
|   |   |   |   |   |   |   |   |   |   |   |   e < 0.5 : emos (1/0)
|   |   |   |   |   |   |   |   |   |   |   |   e >= 0.5 : eemos (1/0)
|   |   |   |   |   |   |   |   |   |   |   v >= 0.5 : vemos (1/0)
|   |   |   |   |   |   |   |   |   |   ñ >= 0.5 : ñemos (1/0)
|   |   |   |   |   |   |   |   tense = 1
|   |   |   |   |   |   |   |   |   number = 0
|   |   |   |   |   |   |   |   |   |   e < 0.5
|   |   |   |   |   |   |   |   |   |   |   v < 0.5
|   |   |   |   |   |   |   |   |   |   |   |   ñ < 0.5 : ía (1/0)
|   |   |   |   |   |   |   |   |   |   |   |   ñ >= 0.5 : ñía (1/0)
|   |   |   |   |   |   |   |   |   |   |   v >= 0.5 : veía (1/0)
|   |   |   |   |   |   |   |   |   |   e >= 0.5 : eía (1/0)
|   |   |   |   |   |   |   |   |   number = 1
|   |   |   |   |   |   |   |   |   |   v < 0.5
|   |   |   |   |   |   |   |   |   |   |   ñ < 0.5
|   |   |   |   |   |   |   |   |   |   |   |   e < 0.5 : íamos (1/0)
|   |   |   |   |   |   |   |   |   |   |   |   e >= 0.5 : eíamos (1/0)
|   |   |   |   |   |   |   |   |   |   |   ñ >= 0.5 : ñíamos (1/0)
|   |   |   |   |   |   |   |   |   |   v >= 0.5 : veíamos (1/0)
|   |   |   |   |   |   |   |   tense = 2
|   |   |   |   |   |   |   |   |   number = 0
|   |   |   |   |   |   |   |   |   |   ñ < 0.5
|   |   |   |   |   |   |   |   |   |   |   v < 0.5
|   |   |   |   |   |   |   |   |   |   |   |   e < 0.5 : eré (1/0)
|   |   |   |   |   |   |   |   |   |   |   |   e >= 0.5 : eeré (1/0)
|   |   |   |   |   |   |   |   |   |   |   v >= 0.5 : veré (1/0)
|   |   |   |   |   |   |   |   |   |   ñ >= 0.5 : ñeré (1/0)
|   |   |   |   |   |   |   |   |   number = 1
|   |   |   |   |   |   |   |   |   |   v < 0.5
|   |   |   |   |   |   |   |   |   |   |   e < 0.5
|   |   |   |   |   |   |   |   |   |   |   |   ñ < 0.5 : eremos (1/0)
|   |   |   |   |   |   |   |   |   |   |   |   ñ >= 0.5 : ñeremos (1/0)
|   |   |   |   |   |   |   |   |   |   |   e >= 0.5 : eeremos (1/0)
|   |   |   |   |   |   |   |   |   |   v >= 0.5 : veremos (1/0)
|   |   |   |   |   |   |   |   tense = 3
|   |   |   |   |   |   |   |   |   number = 0
|   |   |   |   |   |   |   |   |   |   e < 0.5
|   |   |   |   |   |   |   |   |   |   |   ñ < 0.5
|   |   |   |   |   |   |   |   |   |   |   |   v < 0.5 : í (1/0)
|   |   |   |   |   |   |   |   |   |   |   |   v >= 0.5 : ví (1/0)
|   |   |   |   |   |   |   |   |   |   |   ñ >= 0.5 : ñí (1/0)
|   |   |   |   |   |   |   |   |   |   e >= 0.5 : eí (1/0)
|   |   |   |   |   |   |   |   |   number = 1
|   |   |   |   |   |   |   |   |   |   v < 0.5
|   |   |   |   |   |   |   |   |   |   |   ñ < 0.5
|   |   |   |   |   |   |   |   |   |   |   |   e < 0.5 : imos (1/0)
|   |   |   |   |   |   |   |   |   |   |   |   e >= 0.5 : eimos (1/0)
|   |   |   |   |   |   |   |   |   |   |   ñ >= 0.5 : ñimos (1/0)
|   |   |   |   |   |   |   |   |   |   v >= 0.5 : vimos (1/0)
|   |   |   |   |   |   |   |   tense = 4
|   |   |   |   |   |   |   |   |   e < 0.5
|   |   |   |   |   |   |   |   |   |   ñ < 0.5
|   |   |   |   |   |   |   |   |   |   |   number = 0
|   |   |   |   |   |   |   |   |   |   |   |   v < 0.5 : ería (1/0)
|   |   |   |   |   |   |   |   |   |   |   |   v >= 0.5 : vería (1/0)
|   |   |   |   |   |   |   |   |   |   |   number = 1
|   |   |   |   |   |   |   |   |   |   |   |   v < 0.5 : eríamos (1/0)
|   |   |   |   |   |   |   |   |   |   |   |   v >= 0.5 : veríamos (1/0)
|   |   |   |   |   |   |   |   |   |   ñ >= 0.5
|   |   |   |   |   |   |   |   |   |   |   number = 0 : ñería (1/0)
|   |   |   |   |   |   |   |   |   |   |   number = 1 : ñeríamos (1/0)
|   |   |   |   |   |   |   |   |   e >= 0.5
|   |   |   |   |   |   |   |   |   |   number = 0 : eería (1/0)
|   |   |   |   |   |   |   |   |   |   number = 1 : eeríamos (1/0)
|   |   |   |   |   |   |   ca >= 0.5
|   |   |   |   |   |   |   |   tense = 0
|   |   |   |   |   |   |   |   |   number = 0 : caigo (1/0)
|   |   |   |   |   |   |   |   |   number = 1 : caemos (1/0)
|   |   |   |   |   |   |   |   tense = 1
|   |   |   |   |   |   |   |   |   number = 0 : caía (1/0)
|   |   |   |   |   |   |   |   |   number = 1 : caíamos (1/0)
|   |   |   |   |   |   |   |   tense = 2
|   |   |   |   |   |   |   |   |   number = 0 : caeré (1/0)
|   |   |   |   |   |   |   |   |   number = 1 : caeremos (1/0)
|   |   |   |   |   |   |   |   tense = 3
|   |   |   |   |   |   |   |   |   number = 0 : caí (1/0)
|   |   |   |   |   |   |   |   |   number = 1 : caimos (1/0)
|   |   |   |   |   |   |   |   tense = 4
|   |   |   |   |   |   |   |   |   number = 0 : caería (1/0)
|   |   |   |   |   |   |   |   |   number = 1 : caeríamos (1/0)
|   |   |   |   |   |   ending = ir
|   |   |   |   |   |   |   tense = 0
|   |   |   |   |   |   |   |   number = 0 : o (1/0)
|   |   |   |   |   |   |   |   number = 1 : imos (1/0)
|   |   |   |   |   |   |   tense = 1
|   |   |   |   |   |   |   |   number = 0 : ía (1/0)
|   |   |   |   |   |   |   |   number = 1 : íamos (1/0)
|   |   |   |   |   |   |   tense = 2
|   |   |   |   |   |   |   |   number = 0 : iré (1/0)
|   |   |   |   |   |   |   |   number = 1 : iremos (1/0)
|   |   |   |   |   |   |   tense = 3
|   |   |   |   |   |   |   |   number = 0 : í (1/0)
|   |   |   |   |   |   |   |   number = 1 : imos (1/0)
|   |   |   |   |   |   |   tense = 4
|   |   |   |   |   |   |   |   number = 0 : iría (1/0)
|   |   |   |   |   |   |   |   number = 1 : iríamos (1/0)
|   |   |   |   |   g >= 0.5
|   |   |   |   |   |   tense = 0
|   |   |   |   |   |   |   number = 0 : go (1/0)
|   |   |   |   |   |   |   number = 1 : gamos (1/0)
|   |   |   |   |   |   tense = 1
|   |   |   |   |   |   |   number = 0 : gaba (1/0)
|   |   |   |   |   |   |   number = 1 : gábamos (1/0)
|   |   |   |   |   |   tense = 2
|   |   |   |   |   |   |   number = 0 : garé (1/0)
|   |   |   |   |   |   |   number = 1 : garemos (1/0)
|   |   |   |   |   |   tense = 3
|   |   |   |   |   |   |   number = 0 : gué (1/0)
|   |   |   |   |   |   |   number = 1 : gamos (1/0)
|   |   |   |   |   |   tense = 4
|   |   |   |   |   |   |   number = 0 : garía (1/0)
|   |   |   |   |   |   |   number = 1 : garíamos (1/0)
|   |   |   |   u >= 0.5
|   |   |   |   |   number = 0
|   |   |   |   |   |   tense = 0 : uo (1/0)
|   |   |   |   |   |   tense = 1 : uaba (1/0)
|   |   |   |   |   |   tense = 2 : uaré (1/0)
|   |   |   |   |   |   tense = 3 : ué (1/0)
|   |   |   |   |   |   tense = 4 : uaría (1/0)
|   |   |   |   |   number = 1
|   |   |   |   |   |   tense = 0 : uamos (1/0)
|   |   |   |   |   |   tense = 1 : uábamos (1/0)
|   |   |   |   |   |   tense = 2 : uaremos (1/0)
|   |   |   |   |   |   tense = 3 : uamos (1/0)
|   |   |   |   |   |   tense = 4 : uaríamos (1/0)
|   |   and >= 0.5
|   |   |   tense = 0
|   |   |   |   number = 0 : ando (1/0)
|   |   |   |   number = 1 : andamos (1/0)
|   |   |   tense = 1
|   |   |   |   number = 0 : andaba (1/0)
|   |   |   |   number = 1 : andábamos (1/0)
|   |   |   tense = 2
|   |   |   |   number = 0 : andaré (1/0)
|   |   |   |   number = 1 : andaremos (1/0)
|   |   |   tense = 3
|   |   |   |   number = 0 : anduve (1/0)
|   |   |   |   number = 1 : anduvimos (1/0)
|   |   |   tense = 4
|   |   |   |   number = 0 : andaría (1/0)
|   |   |   |   number = 1 : andaríamos (1/0)
|   mood = 1
|   |   tense = 0
|   |   |   d < 0.5
|   |   |   |   ending = ar
|   |   |   |   |   ANY < 0.5
|   |   |   |   |   |   and < 0.5
|   |   |   |   |   |   |   number = 0 : desande (1/0)
|   |   |   |   |   |   |   number = 1 : desandemos (1/0)
|   |   |   |   |   |   and >= 0.5
|   |   |   |   |   |   |   number = 0 : ande (1/0)
|   |   |   |   |   |   |   number = 1 : andemos (1/0)
|   |   |   |   |   ANY >= 0.5
|   |   |   |   |   |   i < 0.5
|   |   |   |   |   |   |   number = 0
|   |   |   |   |   |   |   |   u < 0.5
|   |   |   |   |   |   |   |   |   g < 0.5 : e (1/0)
|   |   |   |   |   |   |   |   |   g >= 0.5 : gue (1/0)
|   |   |   |   |   |   |   |   u >= 0.5 : ue (1/0)
|   |   |   |   |   |   |   number = 1
|   |   |   |   |   |   |   |   g < 0.5
|   |   |   |   |   |   |   |   |   u < 0.5 : emos (1/0)
|   |   |   |   |   |   |   |   |   u >= 0.5 : uemos (1/0)
|   |   |   |   |   |   |   |   g >= 0.5 : guemos (1/0)
|   |   |   |   |   |   i >= 0.5
|   |   |   |   |   |   |   number = 0 : ie (1/0)
|   |   |   |   |   |   |   number = 1 : iemos (1/0)
|   |   |   |   ending = er
|   |   |   |   |   e < 0.5
|   |   |   |   |   |   ñ < 0.5
|   |   |   |   |   |   |   number = 0
|   |   |   |   |   |   |   |   v < 0.5
|   |   |   |   |   |   |   |   |   ca < 0.5 : a (1/0)
|   |   |   |   |   |   |   |   |   ca >= 0.5 : caiga (1/0)
|   |   |   |   |   |   |   |   v >= 0.5 : vea (1/0)
|   |   |   |   |   |   |   number = 1
|   |   |   |   |   |   |   |   v < 0.5
|   |   |   |   |   |   |   |   |   ca < 0.5 : amos (1/0)
|   |   |   |   |   |   |   |   |   ca >= 0.5 : caigamos (1/0)
|   |   |   |   |   |   |   |   v >= 0.5 : veamos (1/0)
|   |   |   |   |   |   ñ >= 0.5
|   |   |   |   |   |   |   number = 0 : ña (1/0)
|   |   |   |   |   |   |   number = 1 : ñamos (1/0)
|   |   |   |   |   e >= 0.5
|   |   |   |   |   |   number = 0 : ea (1/0)
|   |   |   |   |   |   number = 1 : eamos (1/0)
|   |   |   |   ending = ir
|   |   |   |   |   number = 0 : a (1/0)
|   |   |   |   |   number = 1 : amos (1/0)
|   |   |   d >= 0.5
|   |   |   |   number = 0 : dé (1/0)
|   |   |   |   number = 1 : demos (1/0)
|   |   tense = 1
|   |   |   number = 0
|   |   |   |   d < 0.5
|   |   |   |   |   ANY < 0.5
|   |   |   |   |   |   and < 0.5 : desanduviera (1/0)
|   |   |   |   |   |   and >= 0.5 : anduviera (1/0)
|   |   |   |   |   ANY >= 0.5
|   |   |   |   |   |   i < 0.5
|   |   |   |   |   |   |   g < 0.5
|   |   |   |   |   |   |   |   u < 0.5
|   |   |   |   |   |   |   |   |   v < 0.5
|   |   |   |   |   |   |   |   |   |   ca < 0.5
|   |   |   |   |   |   |   |   |   |   |   ñ < 0.5
|   |   |   |   |   |   |   |   |   |   |   |   ending = ar : ara (1/0)
|   |   |   |   |   |   |   |   |   |   |   |   ending = er
|   |   |   |   |   |   |   |   |   |   |   |   |   e < 0.5 : iera (1/0)
|   |   |   |   |   |   |   |   |   |   |   |   |   e >= 0.5 : eyera (1/0)
|   |   |   |   |   |   |   |   |   |   |   |   ending = ir : iera (1/0)
|   |   |   |   |   |   |   |   |   |   |   ñ >= 0.5 : ñera (1/0)
|   |   |   |   |   |   |   |   |   |   ca >= 0.5 : cayera (1/0)
|   |   |   |   |   |   |   |   |   v >= 0.5 : viera (1/0)
|   |   |   |   |   |   |   |   u >= 0.5 : uara (1/0)
|   |   |   |   |   |   |   g >= 0.5 : gara (1/0)
|   |   |   |   |   |   i >= 0.5 : iara (1/0)
|   |   |   |   d >= 0.5 : diera (1/0)
|   |   |   number = 1
|   |   |   |   ANY < 0.5
|   |   |   |   |   d < 0.5
|   |   |   |   |   |   and < 0.5 : desanduviéramos (1/0)
|   |   |   |   |   |   and >= 0.5 : anduviéramos (1/0)
|   |   |   |   |   d >= 0.5 : diéramos (1/0)
|   |   |   |   ANY >= 0.5
|   |   |   |   |   ending = ar
|   |   |   |   |   |   u < 0.5
|   |   |   |   |   |   |   i < 0.5
|   |   |   |   |   |   |   |   g < 0.5 : áramos (1/0)
|   |   |   |   |   |   |   |   g >= 0.5 : gáramos (1/0)
|   |   |   |   |   |   |   i >= 0.5 : iáramos (1/0)
|   |   |   |   |   |   u >= 0.5 : uáramos (1/0)
|   |   |   |   |   ending = er
|   |   |   |   |   |   ñ < 0.5
|   |   |   |   |   |   |   v < 0.5
|   |   |   |   |   |   |   |   e < 0.5
|   |   |   |   |   |   |   |   |   ca < 0.5 : iéramos (1/0)
|   |   |   |   |   |   |   |   |   ca >= 0.5 : cayéramos (1/0)
|   |   |   |   |   |   |   |   e >= 0.5 : eyéramos (1/0)
|   |   |   |   |   |   |   v >= 0.5 : viéramos (1/0)
|   |   |   |   |   |   ñ >= 0.5 : ñéramos (1/0)
|   |   |   |   |   ending = ir : iéramos (1/0)
|   |   tense = 2
|   |   |   number = 0
|   |   |   |   ending = ar
|   |   |   |   |   u < 0.5
|   |   |   |   |   |   d < 0.5
|   |   |   |   |   |   |   g < 0.5
|   |   |   |   |   |   |   |   NULL < 0.5
|   |   |   |   |   |   |   |   |   i < 0.5 : are (1/0)
|   |   |   |   |   |   |   |   |   i >= 0.5 : iare (1/0)
|   |   |   |   |   |   |   |   NULL >= 0.5
|   |   |   |   |   |   |   |   |   desand < 0.5 : anduviere (1/0)
|   |   |   |   |   |   |   |   |   desand >= 0.5 : desanduviere (1/0)
|   |   |   |   |   |   |   g >= 0.5 : gare (1/0)
|   |   |   |   |   |   d >= 0.5 : diere (1/0)
|   |   |   |   |   u >= 0.5 : uare (1/0)
|   |   |   |   ending = er
|   |   |   |   |   ca < 0.5
|   |   |   |   |   |   e < 0.5
|   |   |   |   |   |   |   ñ < 0.5
|   |   |   |   |   |   |   |   v < 0.5 : iere (1/0)
|   |   |   |   |   |   |   |   v >= 0.5 : viere (1/0)
|   |   |   |   |   |   |   ñ >= 0.5 : ñere (1/0)
|   |   |   |   |   |   e >= 0.5 : eyere (1/0)
|   |   |   |   |   ca >= 0.5 : cayere (1/0)
|   |   |   |   ending = ir : iere (1/0)
|   |   |   number = 1
|   |   |   |   ANY < 0.5
|   |   |   |   |   d < 0.5
|   |   |   |   |   |   and < 0.5 : desanduviéremos (1/0)
|   |   |   |   |   |   and >= 0.5 : anduviéremos (1/0)
|   |   |   |   |   d >= 0.5 : diéremos (1/0)
|   |   |   |   ANY >= 0.5
|   |   |   |   |   ending = ar
|   |   |   |   |   |   u < 0.5
|   |   |   |   |   |   |   g < 0.5
|   |   |   |   |   |   |   |   i < 0.5 : áremos (1/0)
|   |   |   |   |   |   |   |   i >= 0.5 : iáremos (1/0)
|   |   |   |   |   |   |   g >= 0.5 : gáremos (1/0)
|   |   |   |   |   |   u >= 0.5 : uáremos (1/0)
|   |   |   |   |   ending = er
|   |   |   |   |   |   e < 0.5
|   |   |   |   |   |   |   ñ < 0.5
|   |   |   |   |   |   |   |   v < 0.5
|   |   |   |   |   |   |   |   |   ca < 0.5 : iéremos (1/0)
|   |   |   |   |   |   |   |   |   ca >= 0.5 : cayéremos (1/0)
|   |   |   |   |   |   |   |   v >= 0.5 : viéremos (1/0)
|   |   |   |   |   |   |   ñ >= 0.5 : ñéremos (1/0)
|   |   |   |   |   |   e >= 0.5 : eyéremos (1/0)
|   |   |   |   |   ending = ir : iéremos (1/0)
|   |   tense = 3 : o (0/0)
|   |   tense = 4 : o (0/0)
|   mood = 2 : o (0/0)
|   mood = 3 : o (0/0)
person = 2
|   number = 0
|   |   ending = ar
|   |   |   tense = 0
|   |   |   |   mood = 0
|   |   |   |   |   d < 0.5
|   |   |   |   |   |   g < 0.5
|   |   |   |   |   |   |   ANY < 0.5
|   |   |   |   |   |   |   |   desand < 0.5 : andas (1/0)
|   |   |   |   |   |   |   |   desand >= 0.5 : desandas (1/0)
|   |   |   |   |   |   |   ANY >= 0.5
|   |   |   |   |   |   |   |   i < 0.5
|   |   |   |   |   |   |   |   |   u < 0.5 : as (1/0)
|   |   |   |   |   |   |   |   |   u >= 0.5 : uas (1/0)
|   |   |   |   |   |   |   |   i >= 0.5 : ias (1/0)
|   |   |   |   |   |   g >= 0.5 : gas (1/0)
|   |   |   |   |   d >= 0.5 : das (1/0)
|   |   |   |   mood = 1
|   |   |   |   |   NULL < 0.5
|   |   |   |   |   |   u < 0.5
|   |   |   |   |   |   |   i < 0.5
|   |   |   |   |   |   |   |   g < 0.5 : es (1/0)
|   |   |   |   |   |   |   |   g >= 0.5 : gues (1/0)
|   |   |   |   |   |   |   i >= 0.5 : ies (1/0)
|   |   |   |   |   |   u >= 0.5 : ues (1/0)
|   |   |   |   |   NULL >= 0.5
|   |   |   |   |   |   desand < 0.5
|   |   |   |   |   |   |   and < 0.5 : des (1/0)
|   |   |   |   |   |   |   and >= 0.5 : andes (1/0)
|   |   |   |   |   |   desand >= 0.5 : desandes (1/0)
|   |   |   |   mood = 2
|   |   |   |   |   u < 0.5
|   |   |   |   |   |   i < 0.5
|   |   |   |   |   |   |   ANY < 0.5
|   |   |   |   |   |   |   |   desand < 0.5
|   |   |   |   |   |   |   |   |   d < 0.5 : anda (1/0)
|   |   |   |   |   |   |   |   |   d >= 0.5 : da (1/0)
|   |   |   |   |   |   |   |   desand >= 0.5 : desanda (1/0)
|   |   |   |   |   |   |   ANY >= 0.5
|   |   |   |   |   |   |   |   g < 0.5 : a (1/0)
|   |   |   |   |   |   |   |   g >= 0.5 : ga (1/0)
|   |   |   |   |   |   i >= 0.5 : ia (1/0)
|   |   |   |   |   u >= 0.5 : ua (1/0)
|   |   |   |   mood = 3 : o (0/0)
|   |   |   tense = 1
|   |   |   |   NULL < 0.5
|   |   |   |   |   g < 0.5
|   |   |   |   |   |   mood = 0
|   |   |   |   |   |   |   i < 0.5
|   |   |   |   |   |   |   |   u < 0.5 : abas (1/0)
|   |   |   |   |   |   |   |   u >= 0.5 : uabas (1/0)
|   |   |   |   |   |   |   i >= 0.5 : iabas (1/0)
|   |   |   |   |   |   mood = 1
|   |   |   |   |   |   |   u < 0.5
|   |   |   |   |   |   |   |   i < 0.5 : aras (1/0)
|   |   |   |   |   |   |   |   i >= 0.5 : iaras (1/0)
|   |   |   |   |   |   |   u >= 0.5 : uaras (1/0)
|   |   |   |   |   |   mood = 2 : o (0/0)
|   |   |   |   |   |   mood = 3 : o (0/0)
|   |   |   |   |   g >= 0.5
|   |   |   |   |   |   mood = 0 : gabas (1/0)
|   |   |   |   |   |   mood = 1 : garas (1/0)
|   |   |   |   |   |   mood = 2 : o (0/0)
|   |   |   |   |   |   mood = 3 : o (0/0)
|   |   |   |   NULL >= 0.5
|   |   |   |   |   desand < 0.5
|   |   |   |   |   |   mood = 0
|   |   |   |   |   |   |   d < 0.5 : andabas (1/0)
|   |   |   |   |   |   |   d >= 0.5 : dabas (1/0)
|   |   |   |   |   |   mood = 1
|   |   |   |   |   |   |   d < 0.5 : anduvieras (1/0)
|   |   |   |   |   |   |   d >= 0.5 : dieras (1/0)
|   |   |   |   |   |   mood = 2 : o (0/0)
|   |   |   |   |   |   mood = 3 : o (0/0)
|   |   |   |   |   desand >= 0.5
|   |   |   |   |   |   mood = 0 : desandabas (1/0)
|   |   |   |   |   |   mood = 1 : desanduvieras (1/0)
|   |   |   |   |   |   mood = 2 : o (0/0)
|   |   |   |   |   |   mood = 3 : o (0/0)
|   |   |   tense = 2
|   |   |   |   ANY < 0.5
|   |   |   |   |   and < 0.5
|   |   |   |   |   |   desand < 0.5
|   |   |   |   |   |   |   mood = 0 : darás (1/0)
|   |   |   |   |   |   |   mood = 1 : dieres (1/0)
|   |   |   |   |   |   |   mood = 2 : o (0/0)
|   |   |   |   |   |   |   mood = 3 : o (0/0)
|   |   |   |   |   |   desand >= 0.5
|   |   |   |   |   |   |   mood = 0 : desandarás (1/0)
|   |   |   |   |   |   |   mood = 1 : desanduvieres (1/0)
|   |   |   |   |   |   |   mood = 2 : o (0/0)
|   |   |   |   |   |   |   mood = 3 : o (0/0)
|   |   |   |   |   and >= 0.5
|   |   |   |   |   |   mood = 0 : andarás (1/0)
|   |   |   |   |   |   mood = 1 : anduvieres (1/0)
|   |   |   |   |   |   mood = 2 : o (0/0)
|   |   |   |   |   |   mood = 3 : o (0/0)
|   |   |   |   ANY >= 0.5
|   |   |   |   |   g < 0.5
|   |   |   |   |   |   i < 0.5
|   |   |   |   |   |   |   u < 0.5
|   |   |   |   |   |   |   |   mood = 0 : arás (1/0)
|   |   |   |   |   |   |   |   mood = 1 : ares (1/0)
|   |   |   |   |   |   |   |   mood = 2 : o (0/0)
|   |   |   |   |   |   |   |   mood = 3 : o (0/0)
|   |   |   |   |   |   |   u >= 0.5
|   |   |   |   |   |   |   |   mood = 0 : uarás (1/0)
|   |   |   |   |   |   |   |   mood = 1 : uares (1/0)
|   |   |   |   |   |   |   |   mood = 2 : o (0/0)
|   |   |   |   |   |   |   |   mood = 3 : o (0/0)
|   |   |   |   |   |   i >= 0.5
|   |   |   |   |   |   |   mood = 0 : iarás (1/0)
|   |   |   |   |   |   |   mood = 1 : iares (1/0)
|   |   |   |   |   |   |   mood = 2 : o (0/0)
|   |   |   |   |   |   |   mood = 3 : o (0/0)
|   |   |   |   |   g >= 0.5
|   |   |   |   |   |   mood = 0 : garás (1/0)
|   |   |   |   |   |   mood = 1 : gares (1/0)
|   |   |   |   |   |   mood = 2 : o (0/0)
|   |   |   |   |   |   mood = 3 : o (0/0)
|   |   |   tense = 3
|   |   |   |   ANY < 0.5 : diste (1/0)
|   |   |   |   ANY >= 0.5
|   |   |   |   |   u < 0.5
|   |   |   |   |   |   and < 0.5
|   |   |   |   |   |   |   g < 0.5
|   |   |   |   |   |   |   |   i < 0.5 : aste (1/0)
|   |   |   |   |   |   |   |   i >= 0.5 : iaste (1/0)
|   |   |   |   |   |   |   g >= 0.5 : gaste (1/0)
|   |   |   |   |   |   and >= 0.5 : anduviste (1/0)
|   |   |   |   |   u >= 0.5 : uaste (1/0)
|   |   |   tense = 4
|   |   |   |   NULL < 0.5
|   |   |   |   |   u < 0.5
|   |   |   |   |   |   i < 0.5
|   |   |   |   |   |   |   g < 0.5 : arías (1/0)
|   |   |   |   |   |   |   g >= 0.5 : garías (1/0)
|   |   |   |   |   |   i >= 0.5 : iarías (1/0)
|   |   |   |   |   u >= 0.5 : uarías (1/0)
|   |   |   |   NULL >= 0.5
|   |   |   |   |   d < 0.5
|   |   |   |   |   |   and < 0.5 : desandarías (1/0)
|   |   |   |   |   |   and >= 0.5 : andarías (1/0)
|   |   |   |   |   d >= 0.5 : darías (1/0)
|   |   ending = er
|   |   |   mood = 0
|   |   |   |   ca < 0.5
|   |   |   |   |   tense = 0
|   |   |   |   |   |   v < 0.5
|   |   |   |   |   |   |   e < 0.5
|   |   |   |   |   |   |   |   ñ < 0.5 : es (1/0)
|   |   |   |   |   |   |   |   ñ >= 0.5 : ñes (1/0)
|   |   |   |   |   |   |   e >= 0.5 : ees (1/0)
|   |   |   |   |   |   v >= 0.5 : ves (1/0)
|   |   |   |   |   tense = 1
|   |   |   |   |   |   v < 0.5
|   |   |   |   |   |   |   e < 0.5
|   |   |   |   |   |   |   |   ñ < 0.5 : ías (1/0)
|   |   |   |   |   |   |   |   ñ >= 0.5 : ñías (1/0)
|   |   |   |   |   |   |   e >= 0.5 : eías (1/0)
|   |   |   |   |   |   v >= 0.5 : veías (1/0)
|   |   |   |   |   tense = 2
|   |   |   |   |   |   ñ < 0.5
|   |   |   |   |   |   |   v < 0.5
|   |   |   |   |   |   |   |   e < 0.5 : erás (1/0)
|   |   |   |   |   |   |   |   e >= 0.5 : eerás (1/0)
|   |   |   |   |   |   |   v >= 0.5 : verás (1/0)
|   |   |   |   |   |   ñ >= 0.5 : ñerás (1/0)
|   |   |   |   |   tense = 3
|   |   |   |   |   |   v < 0.5
|   |   |   |   |   |   |   e < 0.5
|   |   |   |   |   |   |   |   ñ < 0.5 : iste (1/0)
|   |   |   |   |   |   |   |   ñ >= 0.5 : ñiste (1/0)
|   |   |   |   |   |   |   e >= 0.5 : eíste (1/0)
|   |   |   |   |   |   v >= 0.5 : viste (1/0)
|   |   |   |   |   tense = 4
|   |   |   |   |   |   v < 0.5
|   |   |   |   |   |   |   e < 0.5
|   |   |   |   |   |   |   |   ñ < 0.5 : erías (1/0)
|   |   |   |   |   |   |   |   ñ >= 0.5 : ñerías (1/0)
|   |   |   |   |   |   |   e >= 0.5 : eerías (1/0)
|   |   |   |   |   |   v >= 0.5 : verías (1/0)
|   |   |   |   ca >= 0.5
|   |   |   |   |   tense = 0 : caes (1/0)
|   |   |   |   |   tense = 1 : caías (1/0)
|   |   |   |   |   tense = 2 : caerás (1/0)
|   |   |   |   |   tense = 3 : caiste (1/0)
|   |   |   |   |   tense = 4 : caerías (1/0)
|   |   |   mood = 1
|   |   |   |   tense = 0
|   |   |   |   |   ñ < 0.5
|   |   |   |   |   |   e < 0.5
|   |   |   |   |   |   |   ca < 0.5
|   |   |   |   |   |   |   |   v < 0.5 : as (1/0)
|   |   |   |   |   |   |   |   v >= 0.5 : veas (1/0)
|   |   |   |   |   |   |   ca >= 0.5 : caigas (1/0)
|   |   |   |   |   |   e >= 0.5 : eas (1/0)
|   |   |   |   |   ñ >= 0.5 : ñas (1/0)
|   |   |   |   tense = 1
|   |   |   |   |   ñ < 0.5
|   |   |   |   |   |   e < 0.5
|   |   |   |   |   |   |   ca < 0.5
|   |   |   |   |   |   |   |   v < 0.5 : ieras (1/0)
|   |   |   |   |   |   |   |   v >= 0.5 : vieras (1/0)
|   |   |   |   |   |   |   ca >= 0.5 : cayeras (1/0)
|   |   |   |   |   |   e >= 0.5 : eyeras (1/0)
|   |   |   |   |   ñ >= 0.5 : ñeras (1/0)
|   |   |   |   tense = 2
|   |   |   |   |   ñ < 0.5
|   |   |   |   |   |   v < 0.5
|   |   |   |   |   |   |   ca < 0.5
|   |   |   |   |   |   |   |   e < 0.5 : ieres (1/0)
|   |   |   |   |   |   |   |   e >= 0.5 : eyeres (1/0)
|   |   |   |   |   |   |   ca >= 0.5 : cayeres (1/0)
|   |   |   |   |   |   v >= 0.5 : vieres (1/0)
|   |   |   |   |   ñ >= 0.5 : ñeres (1/0)
|   |   |   |   tense = 3 : o (0/0)
|   |   |   |   tense = 4 : o (0/0)
|   |   |   mood = 2
|   |   |   |   v < 0.5
|   |   |   |   |   ñ < 0.5
|   |   |   |   |   |   ca < 0.5
|   |   |   |   |   |   |   e < 0.5 : e (1/0)
|   |   |   |   |   |   |   e >= 0.5 : ee (1/0)
|   |   |   |   |   |   ca >= 0.5 : cae (1/0)
|   |   |   |   |   ñ >= 0.5 : ñe (1/0)
|   |   |   |   v >= 0.5 : ve (1/0)
|   |   |   mood = 3 : o (0/0)
|   |   ending = ir
|   |   |   tense = 0
|   |   |   |   mood = 0 : es (1/0)
|   |   |   |   mood = 1 : as (1/0)
|   |   |   |   mood = 2 : e (1/0)
|   |   |   |   mood = 3 : o (0/0)
|   |   |   tense = 1
|   |   |   |   mood = 0 : ías (1/0)
|   |   |   |   mood = 1 : ieras (1/0)
|   |   |   |   mood = 2 : o (0/0)
|   |   |   |   mood = 3 : o (0/0)
|   |   |   tense = 2
|   |   |   |   mood = 0 : irás (1/0)
|   |   |   |   mood = 1 : ieres (1/0)
|   |   |   |   mood = 2 : o (0/0)
|   |   |   |   mood = 3 : o (0/0)
|   |   |   tense = 3 : iste (1/0)
|   |   |   tense = 4 : irías (1/0)
|   number = 1
|   |   NULL < 0.5
|   |   |   mood = 0
|   |   |   |   ending = ar
|   |   |   |   |   and < 0.5
|   |   |   |   |   |   tense = 0
|   |   |   |   |   |   |   i < 0.5
|   |   |   |   |   |   |   |   g < 0.5
|   |   |   |   |   |   |   |   |   u < 0.5 : áis (1/0)
|   |   |   |   |   |   |   |   |   u >= 0.5 : uáis (1/0)
|   |   |   |   |   |   |   |   g >= 0.5 : gáis (1/0)
|   |   |   |   |   |   |   i >= 0.5 : iáis (1/0)
|   |   |   |   |   |   tense = 1
|   |   |   |   |   |   |   u < 0.5
|   |   |   |   |   |   |   |   g < 0.5
|   |   |   |   |   |   |   |   |   i < 0.5 : abais (1/0)
|   |   |   |   |   |   |   |   |   i >= 0.5 : iabais (1/0)
|   |   |   |   |   |   |   |   g >= 0.5 : gabais (1/0)
|   |   |   |   |   |   |   u >= 0.5 : uabais (1/0)
|   |   |   |   |   |   tense = 2
|   |   |   |   |   |   |   g < 0.5
|   |   |   |   |   |   |   |   u < 0.5
|   |   |   |   |   |   |   |   |   i < 0.5 : aréis (1/0)
|   |   |   |   |   |   |   |   |   i >= 0.5 : iaréis (1/0)
|   |   |   |   |   |   |   |   u >= 0.5 : uaréis (1/0)
|   |   |   |   |   |   |   g >= 0.5 : garéis (1/0)
|   |   |   |   |   |   tense = 3
|   |   |   |   |   |   |   i < 0.5
|   |   |   |   |   |   |   |   g < 0.5
|   |   |   |   |   |   |   |   |   u < 0.5 : asteis (1/0)
|   |   |   |   |   |   |   |   |   u >= 0.5 : uasteis (1/0)
|   |   |   |   |   |   |   |   g >= 0.5 : gasteis (1/0)
|   |   |   |   |   |   |   i >= 0.5 : iasteis (1/0)
|   |   |   |   |   |   tense = 4
|   |   |   |   |   |   |   g < 0.5
|   |   |   |   |   |   |   |   u < 0.5
|   |   |   |   |   |   |   |   |   i < 0.5 : aríais (1/0)
|   |   |   |   |   |   |   |   |   i >= 0.5 : iaríais (1/0)
|   |   |   |   |   |   |   |   u >= 0.5 : uaríais (1/0)
|   |   |   |   |   |   |   g >= 0.5 : garíais (1/0)
|   |   |   |   |   and >= 0.5 : anduvisteis (1/0)
|   |   |   |   ending = er
|   |   |   |   |   v < 0.5
|   |   |   |   |   |   tense = 0
|   |   |   |   |   |   |   ca < 0.5
|   |   |   |   |   |   |   |   e < 0.5
|   |   |   |   |   |   |   |   |   ñ < 0.5 : éis (1/0)
|   |   |   |   |   |   |   |   |   ñ >= 0.5 : ñéis (1/0)
|   |   |   |   |   |   |   |   e >= 0.5 : eéis (1/0)
|   |   |   |   |   |   |   ca >= 0.5 : caéis (1/0)
|   |   |   |   |   |   tense = 1
|   |   |   |   |   |   |   ñ < 0.5
|   |   |   |   |   |   |   |   ca < 0.5
|   |   |   |   |   |   |   |   |   e < 0.5 : íais (1/0)
|   |   |   |   |   |   |   |   |   e >= 0.5 : eíais (1/0)
|   |   |   |   |   |   |   |   ca >= 0.5 : caíais (1/0)
|   |   |   |   |   |   |   ñ >= 0.5 : ñíais (1/0)
|   |   |   |   |   |   tense = 2
|   |   |   |   |   |   |   ca < 0.5
|   |   |   |   |   |   |   |   ñ < 0.5
|   |   |   |   |   |   |   |   |   e < 0.5 : eréis (1/0)
|   |   |   |   |   |   |   |   |   e >= 0.5 : eeréis (1/0)
|   |   |   |   |   |   |   |   ñ >= 0.5 : ñeréis (1/0)
|   |   |   |   |   |   |   ca >= 0.5 : caeréis (1/0)
|   |   |   |   |   |   tense = 3
|   |   |   |   |   |   |   ca < 0.5
|   |   |   |   |   |   |   |   e < 0.5
|   |   |   |   |   |   |   |   |   ñ < 0.5 : isteis (1/0)
|   |   |   |   |   |   |   |   |   ñ >= 0.5 : ñisteis (1/0)
|   |   |   |   |   |   |   |   e >= 0.5 : eísteis (1/0)
|   |   |   |   |   |   |   ca >= 0.5 : caisteis (1/0)
|   |   |   |   |   |   tense = 4
|   |   |   |   |   |   |   e < 0.5
|   |   |   |   |   |   |   |   ca < 0.5
|   |   |   |   |   |   |   |   |   ñ < 0.5 : eríais (1/0)
|   |   |   |   |   |   |   |   |   ñ >= 0.5 : ñeríais (1/0)
|   |   |   |   |   |   |   |   ca >= 0.5 : caeríais (1/0)
|   |   |   |   |   |   |   e >= 0.5 : eeríais (1/0)
|   |   |   |   |   v >= 0.5
|   |   |   |   |   |   tense = 0 : véis (1/0)
|   |   |   |   |   |   tense = 1 : veíais (1/0)
|   |   |   |   |   |   tense = 2 : veréis (1/0)
|   |   |   |   |   |   tense = 3 : visteis (1/0)
|   |   |   |   |   |   tense = 4 : veríais (1/0)
|   |   |   |   ending = ir
|   |   |   |   |   tense = 0 : ís (1/0)
|   |   |   |   |   tense = 1 : íais (1/0)
|   |   |   |   |   tense = 2 : iréis (1/0)
|   |   |   |   |   tense = 3 : isteis (1/0)
|   |   |   |   |   tense = 4 : iríais (1/0)
|   |   |   mood = 1
|   |   |   |   i < 0.5
|   |   |   |   |   tense = 0
|   |   |   |   |   |   v < 0.5
|   |   |   |   |   |   |   ca < 0.5
|   |   |   |   |   |   |   |   ending = ar
|   |   |   |   |   |   |   |   |   g < 0.5
|   |   |   |   |   |   |   |   |   |   u < 0.5 : éis (1/0)
|   |   |   |   |   |   |   |   |   |   u >= 0.5 : uéis (1/0)
|   |   |   |   |   |   |   |   |   g >= 0.5 : guéis (1/0)
|   |   |   |   |   |   |   |   ending = er
|   |   |   |   |   |   |   |   |   e < 0.5
|   |   |   |   |   |   |   |   |   |   ñ < 0.5 : áis (1/0)
|   |   |   |   |   |   |   |   |   |   ñ >= 0.5 : ñáis (1/0)
|   |   |   |   |   |   |   |   |   e >= 0.5 : eáis (1/0)
|   |   |   |   |   |   |   |   ending = ir : áis (1/0)
|   |   |   |   |   |   |   ca >= 0.5 : caigáis (1/0)
|   |   |   |   |   |   v >= 0.5 : veáis (1/0)
|   |   |   |   |   tense = 1
|   |   |   |   |   |   ending = ar
|   |   |   |   |   |   |   g < 0.5
|   |   |   |   |   |   |   |   u < 0.5 : arais (1/0)
|   |   |   |   |   |   |   |   u >= 0.5 : uarais (1/0)
|   |   |   |   |   |   |   g >= 0.5 : garais (1/0)
|   |   |   |   |   |   ending = er
|   |   |   |   |   |   |   e < 0.5
|   |   |   |   |   |   |   |   v < 0.5
|   |   |   |   |   |   |   |   |   ñ < 0.5
|   |   |   |   |   |   |   |   |   |   ca < 0.5 : ierais (1/0)
|   |   |   |   |   |   |   |   |   |   ca >= 0.5 : cayerais (1/0)
|   |   |   |   |   |   |   |   |   ñ >= 0.5 : ñerais (1/0)
|   |   |   |   |   |   |   |   v >= 0.5 : vierais (1/0)
|   |   |   |   |   |   |   e >= 0.5 : eyerais (1/0)
|   |   |   |   |   |   ending = ir : ierais (1/0)
|   |   |   |   |   tense = 2
|   |   |   |   |   |   ending = ar
|   |   |   |   |   |   |   g < 0.5
|   |   |   |   |   |   |   |   u < 0.5 : areis (1/0)
|   |   |   |   |   |   |   |   u >= 0.5 : uareis (1/0)
|   |   |   |   |   |   |   g >= 0.5 : gareis (1/0)
|   |   |   |   |   |   ending = er
|   |   |   |   |   |   |   v < 0.5
|   |   |   |   |   |   |   |   ñ < 0.5
|   |   |   |   |   |   |   |   |   e < 0.5
|   |   |   |   |   |   |   |   |   |   ca < 0.5 : iereis (1/0)
|   |   |   |   |   |   |   |   |   |   ca >= 0.5 : cayereis (1/0)
|   |   |   |   |   |   |   |   |   e >= 0.5 : eyereis (1/0)
|   |   |   |   |   |   |   |   ñ >= 0.5 : ñereis (1/0)
|   |   |   |   |   |   |   v >= 0.5 : viereis (1/0)
|   |   |   |   |   |   ending = ir : iereis (1/0)
|   |   |   |   |   tense = 3 : o (0/0)
|   |   |   |   |   tense = 4 : o (0/0)
|   |   |   |   i >= 0.5
|   |   |   |   |   tense = 0 : iéis (1/0)
|   |   |   |   |   tense = 1 : iarais (1/0)
|   |   |   |   |   tense = 2 : iareis (1/0)
|   |   |   |   |   tense = 3 : o (0/0)
|   |   |   |   |   tense = 4 : o (0/0)
|   |   |   mood = 2
|   |   |   |   ca < 0.5
|   |   |   |   |   ending = ar
|   |   |   |   |   |   g < 0.5
|   |   |   |   |   |   |   i < 0.5
|   |   |   |   |   |   |   |   u < 0.5 : ad (1/0)
|   |   |   |   |   |   |   |   u >= 0.5 : uad (1/0)
|   |   |   |   |   |   |   i >= 0.5 : iad (1/0)
|   |   |   |   |   |   g >= 0.5 : gad (1/0)
|   |   |   |   |   ending = er
|   |   |   |   |   |   ñ < 0.5
|   |   |   |   |   |   |   v < 0.5 : ed (1/0)
|   |   |   |   |   |   |   v >= 0.5 : ved (1/0)
|   |   |   |   |   |   ñ >= 0.5 : ñed (1/0)
|   |   |   |   |   ending = ir : id (1/0)
|   |   |   |   ca >= 0.5 : caed (1/0)
|   |   |   mood = 3 : o (0/0)
|   |   NULL >= 0.5
|   |   |   desand < 0.5
|   |   |   |   tense = 0
|   |   |   |   |   mood = 0
|   |   |   |   |   |   d < 0.5 : andáis (1/0)
|   |   |   |   |   |   d >= 0.5 : dáis (1/0)
|   |   |   |   |   mood = 1
|   |   |   |   |   |   d < 0.5 : andéis (1/0)
|   |   |   |   |   |   d >= 0.5 : deis (1/0)
|   |   |   |   |   mood = 2
|   |   |   |   |   |   d < 0.5 : andad (1/0)
|   |   |   |   |   |   d >= 0.5 : dad (1/0)
|   |   |   |   |   mood = 3 : o (0/0)
|   |   |   |   tense = 1
|   |   |   |   |   and < 0.5
|   |   |   |   |   |   mood = 0 : dabais (1/0)
|   |   |   |   |   |   mood = 1 : dierais (1/0)
|   |   |   |   |   |   mood = 2 : o (0/0)
|   |   |   |   |   |   mood = 3 : o (0/0)
|   |   |   |   |   and >= 0.5
|   |   |   |   |   |   mood = 0 : andabais (1/0)
|   |   |   |   |   |   mood = 1 : anduvierais (1/0)
|   |   |   |   |   |   mood = 2 : o (0/0)
|   |   |   |   |   |   mood = 3 : o (0/0)
|   |   |   |   tense = 2
|   |   |   |   |   mood = 0
|   |   |   |   |   |   and < 0.5 : daréis (1/0)
|   |   |   |   |   |   and >= 0.5 : andaréis (1/0)
|   |   |   |   |   mood = 1
|   |   |   |   |   |   d < 0.5 : anduviereis (1/0)
|   |   |   |   |   |   d >= 0.5 : diereis (1/0)
|   |   |   |   |   mood = 2 : o (0/0)
|   |   |   |   |   mood = 3 : o (0/0)
|   |   |   |   tense = 3 : disteis (1/0)
|   |   |   |   tense = 4
|   |   |   |   |   and < 0.5 : daríais (1/0)
|   |   |   |   |   and >= 0.5 : andaríais (1/0)
|   |   |   desand >= 0.5
|   |   |   |   tense = 0
|   |   |   |   |   mood = 0 : desandáis (1/0)
|   |   |   |   |   mood = 1 : desandéis (1/0)
|   |   |   |   |   mood = 2 : desandad (1/0)
|   |   |   |   |   mood = 3 : o (0/0)
|   |   |   |   tense = 1
|   |   |   |   |   mood = 0 : desandabais (1/0)
|   |   |   |   |   mood = 1 : desanduvierais (1/0)
|   |   |   |   |   mood = 2 : o (0/0)
|   |   |   |   |   mood = 3 : o (0/0)
|   |   |   |   tense = 2
|   |   |   |   |   mood = 0 : desandaréis (1/0)
|   |   |   |   |   mood = 1 : desanduviereis (1/0)
|   |   |   |   |   mood = 2 : o (0/0)
|   |   |   |   |   mood = 3 : o (0/0)
|   |   |   |   tense = 3 : o (0/0)
|   |   |   |   tense = 4 : desandaríais (1/0)
person = 3
|   tense = 0
|   |   ending = ar
|   |   |   mood = 0
|   |   |   |   number = 0
|   |   |   |   |   ANY < 0.5
|   |   |   |   |   |   desand < 0.5
|   |   |   |   |   |   |   and < 0.5 : da (1/0)
|   |   |   |   |   |   |   and >= 0.5 : anda (1/0)
|   |   |   |   |   |   desand >= 0.5 : desanda (1/0)
|   |   |   |   |   ANY >= 0.5
|   |   |   |   |   |   g < 0.5
|   |   |   |   |   |   |   i < 0.5
|   |   |   |   |   |   |   |   u < 0.5 : a (1/0)
|   |   |   |   |   |   |   |   u >= 0.5 : ua (1/0)
|   |   |   |   |   |   |   i >= 0.5 : ia (1/0)
|   |   |   |   |   |   g >= 0.5 : ga (1/0)
|   |   |   |   number = 1
|   |   |   |   |   ANY < 0.5
|   |   |   |   |   |   desand < 0.5
|   |   |   |   |   |   |   d < 0.5 : andan (1/0)
|   |   |   |   |   |   |   d >= 0.5 : dan (1/0)
|   |   |   |   |   |   desand >= 0.5 : desandan (1/0)
|   |   |   |   |   ANY >= 0.5
|   |   |   |   |   |   i < 0.5
|   |   |   |   |   |   |   g < 0.5
|   |   |   |   |   |   |   |   u < 0.5 : an (1/0)
|   |   |   |   |   |   |   |   u >= 0.5 : uan (1/0)
|   |   |   |   |   |   |   g >= 0.5 : gan (1/0)
|   |   |   |   |   |   i >= 0.5 : ian (1/0)
|   |   |   mood = 1
|   |   |   |   u < 0.5
|   |   |   |   |   desand < 0.5
|   |   |   |   |   |   ANY < 0.5
|   |   |   |   |   |   |   and < 0.5
|   |   |   |   |   |   |   |   number = 0 : dé (1/0)
|   |   |   |   |   |   |   |   number = 1 : den (1/0)
|   |   |   |   |   |   |   and >= 0.5
|   |   |   |   |   |   |   |   number = 0 : ande (1/0)
|   |   |   |   |   |   |   |   number = 1 : anden (1/0)
|   |   |   |   |   |   ANY >= 0.5
|   |   |   |   |   |   |   i < 0.5
|   |   |   |   |   |   |   |   number = 0
|   |   |   |   |   |   |   |   |   g < 0.5 : e (1/0)
|   |   |   |   |   |   |   |   |   g >= 0.5 : gue (1/0)
|   |   |   |   |   |   |   |   number = 1
|   |   |   |   |   |   |   |   |   g < 0.5 : en (1/0)
|   |   |   |   |   |   |   |   |   g >= 0.5 : guen (1/0)
|   |   |   |   |   |   |   i >= 0.5
|   |   |   |   |   |   |   |   number = 0 : ie (1/0)
|   |   |   |   |   |   |   |   number = 1 : ien (1/0)
|   |   |   |   |   desand >= 0.5
|   |   |   |   |   |   number = 0 : desande (1/0)
|   |   |   |   |   |   number = 1 : desanden (1/0)
|   |   |   |   u >= 0.5
|   |   |   |   |   number = 0 : ue (1/0)
|   |   |   |   |   number = 1 : uen (1/0)
|   |   |   mood = 2 : o (0/0)
|   |   |   mood = 3 : o (0/0)
|   |   ending = er
|   |   |   mood = 0
|   |   |   |   ca < 0.5
|   |   |   |   |   e < 0.5
|   |   |   |   |   |   v < 0.5
|   |   |   |   |   |   |   number = 0
|   |   |   |   |   |   |   |   ñ < 0.5 : e (1/0)
|   |   |   |   |   |   |   |   ñ >= 0.5 : ñe (1/0)
|   |   |   |   |   |   |   number = 1
|   |   |   |   |   |   |   |   ñ < 0.5 : en (1/0)
|   |   |   |   |   |   |   |   ñ >= 0.5 : ñen (1/0)
|   |   |   |   |   |   v >= 0.5
|   |   |   |   |   |   |   number = 0 : ve (1/0)
|   |   |   |   |   |   |   number = 1 : ven (1/0)
|   |   |   |   |   e >= 0.5
|   |   |   |   |   |   number = 0 : ee (1/0)
|   |   |   |   |   |   number = 1 : een (1/0)
|   |   |   |   ca >= 0.5
|   |   |   |   |   number = 0 : cae (1/0)
|   |   |   |   |   number = 1 : caen (1/0)
|   |   |   mood = 1
|   |   |   |   number = 0
|   |   |   |   |   e < 0.5
|   |   |   |   |   |   v < 0.5
|   |   |   |   |   |   |   ca < 0.5
|   |   |   |   |   |   |   |   ñ < 0.5 : a (1/0)
|   |   |   |   |   |   |   |   ñ >= 0.5 : ña (1/0)
|   |   |   |   |   |   |   ca >= 0.5 : caiga (1/0)
|   |   |   |   |   |   v >= 0.5 : vea (1/0)
|   |   |   |   |   e >= 0.5 : ea (1/0)
|   |   |   |   number = 1
|   |   |   |   |   e < 0.5
|   |   |   |   |   |   ca < 0.5
|   |   |   |   |   |   |   v < 0.5
|   |   |   |   |   |   |   |   ñ < 0.5 : an (1/0)
|   |   |   |   |   |   |   |   ñ >= 0.5 : ñan (1/0)
|   |   |   |   |   |   |   v >= 0.5 : vean (1/0)
|   |   |   |   |   |   ca >= 0.5 : caigan (1/0)
|   |   |   |   |   e >= 0.5 : ean (1/0)
|   |   |   mood = 2 : o (0/0)
|   |   |   mood = 3 : o (0/0)
|   |   ending = ir
|   |   |   number = 0
|   |   |   |   mood = 0 : e (1/0)
|   |   |   |   mood = 1 : a (1/0)
|   |   |   |   mood = 2 : o (0/0)
|   |   |   |   mood = 3 : o (0/0)
|   |   |   number = 1
|   |   |   |   mood = 0 : en (1/0)
|   |   |   |   mood = 1 : an (1/0)
|   |   |   |   mood = 2 : o (0/0)
|   |   |   |   mood = 3 : o (0/0)
|   tense = 1
|   |   ending = ar
|   |   |   NULL < 0.5
|   |   |   |   i < 0.5
|   |   |   |   |   mood = 0
|   |   |   |   |   |   g < 0.5
|   |   |   |   |   |   |   number = 0
|   |   |   |   |   |   |   |   u < 0.5 : aba (1/0)
|   |   |   |   |   |   |   |   u >= 0.5 : uaba (1/0)
|   |   |   |   |   |   |   number = 1
|   |   |   |   |   |   |   |   u < 0.5 : aban (1/0)
|   |   |   |   |   |   |   |   u >= 0.5 : uaban (1/0)
|   |   |   |   |   |   g >= 0.5
|   |   |   |   |   |   |   number = 0 : gaba (1/0)
|   |   |   |   |   |   |   number = 1 : gaban (1/0)
|   |   |   |   |   mood = 1
|   |   |   |   |   |   g < 0.5
|   |   |   |   |   |   |   number = 0
|   |   |   |   |   |   |   |   u < 0.5 : ara (1/0)
|   |   |   |   |   |   |   |   u >= 0.5 : uara (1/0)
|   |   |   |   |   |   |   number = 1
|   |   |   |   |   |   |   |   u < 0.5 : aran (1/0)
|   |   |   |   |   |   |   |   u >= 0.5 : uaran (1/0)
|   |   |   |   |   |   g >= 0.5
|   |   |   |   |   |   |   number = 0 : gara (1/0)
|   |   |   |   |   |   |   number = 1 : garan (1/0)
|   |   |   |   |   mood = 2 : o (0/0)
|   |   |   |   |   mood = 3 : o (0/0)
|   |   |   |   i >= 0.5
|   |   |   |   |   number = 0
|   |   |   |   |   |   mood = 0 : iaba (1/0)
|   |   |   |   |   |   mood = 1 : iara (1/0)
|   |   |   |   |   |   mood = 2 : o (0/0)
|   |   |   |   |   |   mood = 3 : o (0/0)
|   |   |   |   |   number = 1
|   |   |   |   |   |   mood = 0 : iaban (1/0)
|   |   |   |   |   |   mood = 1 : iaran (1/0)
|   |   |   |   |   |   mood = 2 : o (0/0)
|   |   |   |   |   |   mood = 3 : o (0/0)
|   |   |   NULL >= 0.5
|   |   |   |   mood = 0
|   |   |   |   |   desand < 0.5
|   |   |   |   |   |   and < 0.5
|   |   |   |   |   |   |   number = 0 : daba (1/0)
|   |   |   |   |   |   |   number = 1 : daban (1/0)
|   |   |   |   |   |   and >= 0.5
|   |   |   |   |   |   |   number = 0 : andaba (1/0)
|   |   |   |   |   |   |   number = 1 : andaban (1/0)
|   |   |   |   |   desand >= 0.5
|   |   |   |   |   |   number = 0 : desandaba (1/0)
|   |   |   |   |   |   number = 1 : desandaban (1/0)
|   |   |   |   mood = 1
|   |   |   |   |   and < 0.5
|   |   |   |   |   |   number = 0
|   |   |   |   |   |   |   d < 0.5 : desanduviera (1/0)
|   |   |   |   |   |   |   d >= 0.5 : diera (1/0)
|   |   |   |   |   |   number = 1
|   |   |   |   |   |   |   d < 0.5 : desanduvieran (1/0)
|   |   |   |   |   |   |   d >= 0.5 : dieran (1/0)
|   |   |   |   |   and >= 0.5
|   |   |   |   |   |   number = 0 : anduviera (1/0)
|   |   |   |   |   |   number = 1 : anduvieran (1/0)
|   |   |   |   mood = 2 : o (0/0)
|   |   |   |   mood = 3 : o (0/0)
|   |   ending = er
|   |   |   number = 0
|   |   |   |   e < 0.5
|   |   |   |   |   v < 0.5
|   |   |   |   |   |   ñ < 0.5
|   |   |   |   |   |   |   ca < 0.5
|   |   |   |   |   |   |   |   mood = 0 : ía (1/0)
|   |   |   |   |   |   |   |   mood = 1 : iera (1/0)
|   |   |   |   |   |   |   |   mood = 2 : o (0/0)
|   |   |   |   |   |   |   |   mood = 3 : o (0/0)
|   |   |   |   |   |   |   ca >= 0.5
|   |   |   |   |   |   |   |   mood = 0 : caía (1/0)
|   |   |   |   |   |   |   |   mood = 1 : cayera (1/0)
|   |   |   |   |   |   |   |   mood = 2 : o (0/0)
|   |   |   |   |   |   |   |   mood = 3 : o (0/0)
|   |   |   |   |   |   ñ >= 0.5
|   |   |   |   |   |   |   mood = 0 : ñía (1/0)
|   |   |   |   |   |   |   mood = 1 : ñera (1/0)
|   |   |   |   |   |   |   mood = 2 : o (0/0)
|   |   |   |   |   |   |   mood = 3 : o (0/0)
|   |   |   |   |   v >= 0.5
|   |   |   |   |   |   mood = 0 : veía (1/0)
|   |   |   |   |   |   mood = 1 : viera (1/0)
|   |   |   |   |   |   mood = 2 : o (0/0)
|   |   |   |   |   |   mood = 3 : o (0/0)
|   |   |   |   e >= 0.5
|   |   |   |   |   mood = 0 : eía (1/0)
|   |   |   |   |   mood = 1 : eyera (1/0)
|   |   |   |   |   mood = 2 : o (0/0)
|   |   |   |   |   mood = 3 : o (0/0)
|   |   |   number = 1
|   |   |   |   mood = 0
|   |   |   |   |   ca < 0.5
|   |   |   |   |   |   ñ < 0.5
|   |   |   |   |   |   |   e < 0.5
|   |   |   |   |   |   |   |   v < 0.5 : ían (1/0)
|   |   |   |   |   |   |   |   v >= 0.5 : veían (1/0)
|   |   |   |   |   |   |   e >= 0.5 : eían (1/0)
|   |   |   |   |   |   ñ >= 0.5 : ñían (1/0)
|   |   |   |   |   ca >= 0.5 : caían (1/0)
|   |   |   |   mood = 1
|   |   |   |   |   ca < 0.5
|   |   |   |   |   |   e < 0.5
|   |   |   |   |   |   |   v < 0.5
|   |   |   |   |   |   |   |   ñ < 0.5 : ieran (1/0)
|   |   |   |   |   |   |   |   ñ >= 0.5 : ñeran (1/0)
|   |   |   |   |   |   |   v >= 0.5 : vieran (1/0)
|   |   |   |   |   |   e >= 0.5 : eyeran (1/0)
|   |   |   |   |   ca >= 0.5 : cayeran (1/0)
|   |   |   |   mood = 2 : o (0/0)
|   |   |   |   mood = 3 : o (0/0)
|   |   ending = ir
|   |   |   number = 0
|   |   |   |   mood = 0 : ía (1/0)
|   |   |   |   mood = 1 : iera (1/0)
|   |   |   |   mood = 2 : o (0/0)
|   |   |   |   mood = 3 : o (0/0)
|   |   |   number = 1
|   |   |   |   mood = 0 : ían (1/0)
|   |   |   |   mood = 1 : ieran (1/0)
|   |   |   |   mood = 2 : o (0/0)
|   |   |   |   mood = 3 : o (0/0)
|   tense = 2
|   |   number = 0
|   |   |   mood = 0
|   |   |   |   NULL < 0.5
|   |   |   |   |   g < 0.5
|   |   |   |   |   |   ending = ar
|   |   |   |   |   |   |   u < 0.5
|   |   |   |   |   |   |   |   i < 0.5 : ará (1/0)
|   |   |   |   |   |   |   |   i >= 0.5 : iará (1/0)
|   |   |   |   |   |   |   u >= 0.5 : uará (1/0)
|   |   |   |   |   |   ending = er
|   |   |   |   |   |   |   ca < 0.5
|   |   |   |   |   |   |   |   ñ < 0.5
|   |   |   |   |   |   |   |   |   e < 0.5
|   |   |   |   |   |   |   |   |   |   v < 0.5 : erá (1/0)
|   |   |   |   |   |   |   |   |   |   v >= 0.5 : verá (1/0)
|   |   |   |   |   |   |   |   |   e >= 0.5 : eerá (1/0)
|   |   |   |   |   |   |   |   ñ >= 0.5 : ñerá (1/0)
|   |   |   |   |   |   |   ca >= 0.5 : caerá (1/0)
|   |   |   |   |   |   ending = ir : irá (1/0)
|   |   |   |   |   g >= 0.5 : gará (1/0)
|   |   |   |   NULL >= 0.5
|   |   |   |   |   desand < 0.5
|   |   |   |   |   |   and < 0.5 : dará (1/0)
|   |   |   |   |   |   and >= 0.5 : andará (1/0)
|   |   |   |   |   desand >= 0.5 : desandará (1/0)
|   |   |   mood = 1
|   |   |   |   ending = ar
|   |   |   |   |   desand < 0.5
|   |   |   |   |   |   NULL < 0.5
|   |   |   |   |   |   |   u < 0.5
|   |   |   |   |   |   |   |   i < 0.5
|   |   |   |   |   |   |   |   |   g < 0.5 : are (1/0)
|   |   |   |   |   |   |   |   |   g >= 0.5 : gare (1/0)
|   |   |   |   |   |   |   |   i >= 0.5 : iare (1/0)
|   |   |   |   |   |   |   u >= 0.5 : uare (1/0)
|   |   |   |   |   |   NULL >= 0.5
|   |   |   |   |   |   |   and < 0.5 : diere (1/0)
|   |   |   |   |   |   |   and >= 0.5 : anduviere (1/0)
|   |   |   |   |   desand >= 0.5 : desanduviere (1/0)
|   |   |   |   ending = er
|   |   |   |   |   e < 0.5
|   |   |   |   |   |   ñ < 0.5
|   |   |   |   |   |   |   v < 0.5
|   |   |   |   |   |   |   |   ca < 0.5 : iere (1/0)
|   |   |   |   |   |   |   |   ca >= 0.5 : cayere (1/0)
|   |   |   |   |   |   |   v >= 0.5 : viere (1/0)
|   |   |   |   |   |   ñ >= 0.5 : ñere (1/0)
|   |   |   |   |   e >= 0.5 : eyere (1/0)
|   |   |   |   ending = ir : iere (1/0)
|   |   |   mood = 2 : o (0/0)
|   |   |   mood = 3 : o (0/0)
|   |   number = 1
|   |   |   ending = ar
|   |   |   |   g < 0.5
|   |   |   |   |   mood = 0
|   |   |   |   |   |   ANY < 0.5
|   |   |   |   |   |   |   and < 0.5
|   |   |   |   |   |   |   |   desand < 0.5 : darán (1/0)
|   |   |   |   |   |   |   |   desand >= 0.5 : desandarán (1/0)
|   |   |   |   |   |   |   and >= 0.5 : andarán (1/0)
|   |   |   |   |   |   ANY >= 0.5
|   |   |   |   |   |   |   u < 0.5
|   |   |   |   |   |   |   |   i < 0.5 : arán (1/0)
|   |   |   |   |   |   |   |   i >= 0.5 : iarán (1/0)
|   |   |   |   |   |   |   u >= 0.5 : uarán (1/0)
|   |   |   |   |   mood = 1
|   |   |   |   |   |   ANY < 0.5
|   |   |   |   |   |   |   d < 0.5
|   |   |   |   |   |   |   |   and < 0.5 : desanduvieren (1/0)
|   |   |   |   |   |   |   |   and >= 0.5 : anduvieren (1/0)
|   |   |   |   |   |   |   d >= 0.5 : dieren (1/0)
|   |   |   |   |   |   ANY >= 0.5
|   |   |   |   |   |   |   u < 0.5
|   |   |   |   |   |   |   |   i < 0.5 : aren (1/0)
|   |   |   |   |   |   |   |   i >= 0.5 : iaren (1/0)
|   |   |   |   |   |   |   u >= 0.5 : uaren (1/0)
|   |   |   |   |   mood = 2 : o (0/0)
|   |   |   |   |   mood = 3 : o (0/0)
|   |   |   |   g >= 0.5
|   |   |   |   |   mood = 0 : garán (1/0)
|   |   |   |   |   mood = 1 : garen (1/0)
|   |   |   |   |   mood = 2 : o (0/0)
|   |   |   |   |   mood = 3 : o (0/0)
|   |   |   ending = er
|   |   |   |   ca < 0.5
|   |   |   |   |   e < 0.5
|   |   |   |   |   |   ñ < 0.5
|   |   |   |   |   |   |   mood = 0
|   |   |   |   |   |   |   |   v < 0.5 : erán (1/0)
|   |   |   |   |   |   |   |   v >= 0.5 : verán (1/0)
|   |   |   |   |   |   |   mood = 1
|   |   |   |   |   |   |   |   v < 0.5 : ieren (1/0)
|   |   |   |   |   |   |   |   v >= 0.5 : vieren (1/0)
|   |   |   |   |   |   |   mood = 2 : o (0/0)
|   |   |   |   |   |   |   mood = 3 : o (0/0)
|   |   |   |   |   |   ñ >= 0.5
|   |   |   |   |   |   |   mood = 0 : ñerán (1/0)
|   |   |   |   |   |   |   mood = 1 : ñeren (1/0)
|   |   |   |   |   |   |   mood = 2 : o (0/0)
|   |   |   |   |   |   |   mood = 3 : o (0/0)
|   |   |   |   |   e >= 0.5
|   |   |   |   |   |   mood = 0 : eerán (1/0)
|   |   |   |   |   |   mood = 1 : eyeren (1/0)
|   |   |   |   |   |   mood = 2 : o (0/0)
|   |   |   |   |   |   mood = 3 : o (0/0)
|   |   |   |   ca >= 0.5
|   |   |   |   |   mood = 0 : caerán (1/0)
|   |   |   |   |   mood = 1 : cayeren (1/0)
|   |   |   |   |   mood = 2 : o (0/0)
|   |   |   |   |   mood = 3 : o (0/0)
|   |   |   ending = ir
|   |   |   |   mood = 0 : irán (1/0)
|   |   |   |   mood = 1 : ieren (1/0)
|   |   |   |   mood = 2 : o (0/0)
|   |   |   |   mood = 3 : o (0/0)
|   tense = 3
|   |   number = 0
|   |   |   u < 0.5
|   |   |   |   ending = ar
|   |   |   |   |   i < 0.5
|   |   |   |   |   |   g < 0.5
|   |   |   |   |   |   |   ANY < 0.5 : dio (1/0)
|   |   |   |   |   |   |   ANY >= 0.5
|   |   |   |   |   |   |   |   and < 0.5 : ó (1/0)
|   |   |   |   |   |   |   |   and >= 0.5 : anduvo (1/0)
|   |   |   |   |   |   g >= 0.5 : gó (1/0)
|   |   |   |   |   i >= 0.5 : ió (1/0)
|   |   |   |   ending = er
|   |   |   |   |   ñ < 0.5
|   |   |   |   |   |   ca < 0.5
|   |   |   |   |   |   |   v < 0.5
|   |   |   |   |   |   |   |   e < 0.5 : ió (1/0)
|   |   |   |   |   |   |   |   e >= 0.5 : eyó (1/0)
|   |   |   |   |   |   |   v >= 0.5 : vió (1/0)
|   |   |   |   |   |   ca >= 0.5 : cayó (1/0)
|   |   |   |   |   ñ >= 0.5 : ñó (1/0)
|   |   |   |   ending = ir : ió (1/0)
|   |   |   u >= 0.5 : uó (1/0)
|   |   number = 1
|   |   |   g < 0.5
|   |   |   |   ending = ar
|   |   |   |   |   NULL < 0.5
|   |   |   |   |   |   and < 0.5
|   |   |   |   |   |   |   i < 0.5
|   |   |   |   |   |   |   |   u < 0.5 : aron (1/0)
|   |   |   |   |   |   |   |   u >= 0.5 : uaron (1/0)
|   |   |   |   |   |   |   i >= 0.5 : iaron (1/0)
|   |   |   |   |   |   and >= 0.5 : anduvieron (1/0)
|   |   |   |   |   NULL >= 0.5 : dieron (1/0)
|   |   |   |   ending = er
|   |   |   |   |   ca < 0.5
|   |   |   |   |   |   ñ < 0.5
|   |   |   |   |   |   |   e < 0.5
|   |   |   |   |   |   |   |   v < 0.5 : ieron (1/0)
|   |   |   |   |   |   |   |   v >= 0.5 : vieron (1/0)
|   |   |   |   |   |   |   e >= 0.5 : eyeron (1/0)
|   |   |   |   |   |   ñ >= 0.5 : ñeron (1/0)
|   |   |   |   |   ca >= 0.5 : cayeron (1/0)
|   |   |   |   ending = ir : ieron (1/0)
|   |   |   g >= 0.5 : garon (1/0)
|   tense = 4
|   |   ending = ar
|   |   |   d < 0.5
|   |   |   |   u < 0.5
|   |   |   |   |   number = 0
|   |   |   |   |   |   desand < 0.5
|   |   |   |   |   |   |   ANY < 0.5 : andaría (1/0)
|   |   |   |   |   |   |   ANY >= 0.5
|   |   |   |   |   |   |   |   g < 0.5
|   |   |   |   |   |   |   |   |   i < 0.5 : aría (1/0)
|   |   |   |   |   |   |   |   |   i >= 0.5 : iaría (1/0)
|   |   |   |   |   |   |   |   g >= 0.5 : garía (1/0)
|   |   |   |   |   |   desand >= 0.5 : desandaría (1/0)
|   |   |   |   |   number = 1
|   |   |   |   |   |   ANY < 0.5
|   |   |   |   |   |   |   desand < 0.5 : andarían (1/0)
|   |   |   |   |   |   |   desand >= 0.5 : desandarían (1/0)
|   |   |   |   |   |   ANY >= 0.5
|   |   |   |   |   |   |   i < 0.5
|   |   |   |   |   |   |   |   g < 0.5 : arían (1/0)
|   |   |   |   |   |   |   |   g >= 0.5 : garían (1/0)
|   |   |   |   |   |   |   i >= 0.5 : iarían (1/0)
|   |   |   |   u >= 0.5
|   |   |   |   |   number = 0 : uaría (1/0)
|   |   |   |   |   number = 1 : uarían (1/0)
|   |   |   d >= 0.5
|   |   |   |   number = 0 : daría (1/0)
|   |   |   |   number = 1 : darían (1/0)
|   |   ending = er
|   |   |   number = 0
|   |   |   |   ca < 0.5
|   |   |   |   |   e < 0.5
|   |   |   |   |   |   ñ < 0.5
|   |   |   |   |   |   |   v < 0.5 : ería (1/0)
|   |   |   |   |   |   |   v >= 0.5 : vería (1/0)
|   |   |   |   |   |   ñ >= 0.5 : ñería (1/0)
|   |   |   |   |   e >= 0.5 : eería (1/0)
|   |   |   |   ca >= 0.5 : caería (1/0)
|   |   |   number = 1
|   |   |   |   v < 0.5
|   |   |   |   |   ñ < 0.5
|   |   |   |   |   |   e < 0.5
|   |   |   |   |   |   |   ca < 0.5 : erían (1/0)
|   |   |   |   |   |   |   ca >= 0.5 : caerían (1/0)
|   |   |   |   |   |   e >= 0.5 : eerían (1/0)
|   |   |   |   |   ñ >= 0.5 : ñerían (1/0)
|   |   |   |   v >= 0.5 : verían (1/0)
|   |   ending = ir
|   |   |   number = 0 : iría (1/0)
|   |   |   number = 1 : irían (1/0)

Size of the tree : 1372

Time taken to build model: 0.04 seconds

=== Evaluation on training set ===

Time taken to test model on training data: 0.03 seconds

=== Summary ===

Correctly Classified Instances         682              100      %
Incorrectly Classified Instances         0                0      %
Kappa statistic                          1     
Mean absolute error                      0     
Root mean squared error                  0     
Relative absolute error                  0      %
Root relative squared error              0      %
Total Number of Instances              682     

=== Detailed Accuracy By Class ===

                 TP Rate  FP Rate  Precision  Recall   F-Measure  MCC      ROC Area  PRC Area  Class
                 1,000    0,000    1,000      1,000    1,000      1,000    1,000     1,000     o
                 1,000    0,000    1,000      1,000    1,000      1,000    1,000     1,000     as
                 1,000    0,000    1,000      1,000    1,000      1,000    1,000     1,000     a
                 1,000    0,000    1,000      1,000    1,000      1,000    1,000     1,000     amos
                 1,000    0,000    1,000      1,000    1,000      1,000    1,000     1,000     áis
                 1,000    0,000    1,000      1,000    1,000      1,000    1,000     1,000     an
                 1,000    0,000    1,000      1,000    1,000      1,000    1,000     1,000     go
                 1,000    0,000    1,000      1,000    1,000      1,000    1,000     1,000     gas
                 1,000    0,000    1,000      1,000    1,000      1,000    1,000     1,000     ga
                 1,000    0,000    1,000      1,000    1,000      1,000    1,000     1,000     gamos
                 1,000    0,000    1,000      1,000    1,000      1,000    1,000     1,000     gáis
                 1,000    0,000    1,000      1,000    1,000      1,000    1,000     1,000     gan
                 1,000    0,000    1,000      1,000    1,000      1,000    1,000     1,000     io
                 1,000    0,000    1,000      1,000    1,000      1,000    1,000     1,000     ias
                 1,000    0,000    1,000      1,000    1,000      1,000    1,000     1,000     ia
                 1,000    0,000    1,000      1,000    1,000      1,000    1,000     1,000     iamos
                 1,000    0,000    1,000      1,000    1,000      1,000    1,000     1,000     iáis
                 1,000    0,000    1,000      1,000    1,000      1,000    1,000     1,000     ian
                 1,000    0,000    1,000      1,000    1,000      1,000    1,000     1,000     uo
                 1,000    0,000    1,000      1,000    1,000      1,000    1,000     1,000     uas
                 1,000    0,000    1,000      1,000    1,000      1,000    1,000     1,000     ua
                 1,000    0,000    1,000      1,000    1,000      1,000    1,000     1,000     uamos
                 1,000    0,000    1,000      1,000    1,000      1,000    1,000     1,000     uáis
                 1,000    0,000    1,000      1,000    1,000      1,000    1,000     1,000     uan
                 1,000    0,000    1,000      1,000    1,000      1,000    1,000     1,000     aba
                 1,000    0,000    1,000      1,000    1,000      1,000    1,000     1,000     abas
                 1,000    0,000    1,000      1,000    1,000      1,000    1,000     1,000     ábamos
                 1,000    0,000    1,000      1,000    1,000      1,000    1,000     1,000     abais
                 1,000    0,000    1,000      1,000    1,000      1,000    1,000     1,000     aban
                 1,000    0,000    1,000      1,000    1,000      1,000    1,000     1,000     gaba
                 1,000    0,000    1,000      1,000    1,000      1,000    1,000     1,000     gabas
                 1,000    0,000    1,000      1,000    1,000      1,000    1,000     1,000     gábamos
                 1,000    0,000    1,000      1,000    1,000      1,000    1,000     1,000     gabais
                 1,000    0,000    1,000      1,000    1,000      1,000    1,000     1,000     gaban
                 1,000    0,000    1,000      1,000    1,000      1,000    1,000     1,000     iaba
                 1,000    0,000    1,000      1,000    1,000      1,000    1,000     1,000     iabas
                 1,000    0,000    1,000      1,000    1,000      1,000    1,000     1,000     iábamos
                 1,000    0,000    1,000      1,000    1,000      1,000    1,000     1,000     iabais
                 1,000    0,000    1,000      1,000    1,000      1,000    1,000     1,000     iaban
                 1,000    0,000    1,000      1,000    1,000      1,000    1,000     1,000     uaba
                 1,000    0,000    1,000      1,000    1,000      1,000    1,000     1,000     uabas
                 1,000    0,000    1,000      1,000    1,000      1,000    1,000     1,000     uábamos
                 1,000    0,000    1,000      1,000    1,000      1,000    1,000     1,000     uabais
                 1,000    0,000    1,000      1,000    1,000      1,000    1,000     1,000     uaban
                 1,000    0,000    1,000      1,000    1,000      1,000    1,000     1,000     é
                 1,000    0,000    1,000      1,000    1,000      1,000    1,000     1,000     aste
                 1,000    0,000    1,000      1,000    1,000      1,000    1,000     1,000     ó
                 1,000    0,000    1,000      1,000    1,000      1,000    1,000     1,000     asteis
                 1,000    0,000    1,000      1,000    1,000      1,000    1,000     1,000     aron
                 1,000    0,000    1,000      1,000    1,000      1,000    1,000     1,000     gué
                 1,000    0,000    1,000      1,000    1,000      1,000    1,000     1,000     gaste
                 1,000    0,000    1,000      1,000    1,000      1,000    1,000     1,000     gó
                 1,000    0,000    1,000      1,000    1,000      1,000    1,000     1,000     gasteis
                 1,000    0,000    1,000      1,000    1,000      1,000    1,000     1,000     garon
                 1,000    0,000    1,000      1,000    1,000      1,000    1,000     1,000     ié
                 1,000    0,000    1,000      1,000    1,000      1,000    1,000     1,000     iaste
                 1,000    0,000    1,000      1,000    1,000      1,000    1,000     1,000     ió
                 1,000    0,000    1,000      1,000    1,000      1,000    1,000     1,000     iasteis
                 1,000    0,000    1,000      1,000    1,000      1,000    1,000     1,000     iaron
                 1,000    0,000    1,000      1,000    1,000      1,000    1,000     1,000     ué
                 1,000    0,000    1,000      1,000    1,000      1,000    1,000     1,000     uaste
                 1,000    0,000    1,000      1,000    1,000      1,000    1,000     1,000     uó
                 1,000    0,000    1,000      1,000    1,000      1,000    1,000     1,000     uasteis
                 1,000    0,000    1,000      1,000    1,000      1,000    1,000     1,000     uaron
                 1,000    0,000    1,000      1,000    1,000      1,000    1,000     1,000     aré
                 1,000    0,000    1,000      1,000    1,000      1,000    1,000     1,000     arás
                 1,000    0,000    1,000      1,000    1,000      1,000    1,000     1,000     ará
                 1,000    0,000    1,000      1,000    1,000      1,000    1,000     1,000     aremos
                 1,000    0,000    1,000      1,000    1,000      1,000    1,000     1,000     aréis
                 1,000    0,000    1,000      1,000    1,000      1,000    1,000     1,000     arán
                 1,000    0,000    1,000      1,000    1,000      1,000    1,000     1,000     garé
                 1,000    0,000    1,000      1,000    1,000      1,000    1,000     1,000     garás
                 1,000    0,000    1,000      1,000    1,000      1,000    1,000     1,000     gará
                 1,000    0,000    1,000      1,000    1,000      1,000    1,000     1,000     garemos
                 1,000    0,000    1,000      1,000    1,000      1,000    1,000     1,000     garéis
                 1,000    0,000    1,000      1,000    1,000      1,000    1,000     1,000     garán
                 1,000    0,000    1,000      1,000    1,000      1,000    1,000     1,000     iaré
                 1,000    0,000    1,000      1,000    1,000      1,000    1,000     1,000     iarás
                 1,000    0,000    1,000      1,000    1,000      1,000    1,000     1,000     iará
                 1,000    0,000    1,000      1,000    1,000      1,000    1,000     1,000     iaremos
                 1,000    0,000    1,000      1,000    1,000      1,000    1,000     1,000     iaréis
                 1,000    0,000    1,000      1,000    1,000      1,000    1,000     1,000     iarán
                 1,000    0,000    1,000      1,000    1,000      1,000    1,000     1,000     uaré
                 1,000    0,000    1,000      1,000    1,000      1,000    1,000     1,000     uarás
                 1,000    0,000    1,000      1,000    1,000      1,000    1,000     1,000     uará
                 1,000    0,000    1,000      1,000    1,000      1,000    1,000     1,000     uaremos
                 1,000    0,000    1,000      1,000    1,000      1,000    1,000     1,000     uaréis
                 1,000    0,000    1,000      1,000    1,000      1,000    1,000     1,000     uarán
                 1,000    0,000    1,000      1,000    1,000      1,000    1,000     1,000     aría
                 1,000    0,000    1,000      1,000    1,000      1,000    1,000     1,000     arías
                 1,000    0,000    1,000      1,000    1,000      1,000    1,000     1,000     aríamos
                 1,000    0,000    1,000      1,000    1,000      1,000    1,000     1,000     aríais
                 1,000    0,000    1,000      1,000    1,000      1,000    1,000     1,000     arían
                 1,000    0,000    1,000      1,000    1,000      1,000    1,000     1,000     garía
                 1,000    0,000    1,000      1,000    1,000      1,000    1,000     1,000     garías
                 1,000    0,000    1,000      1,000    1,000      1,000    1,000     1,000     garíamos
                 1,000    0,000    1,000      1,000    1,000      1,000    1,000     1,000     garíais
                 1,000    0,000    1,000      1,000    1,000      1,000    1,000     1,000     garían
                 1,000    0,000    1,000      1,000    1,000      1,000    1,000     1,000     iaría
                 1,000    0,000    1,000      1,000    1,000      1,000    1,000     1,000     iarías
                 1,000    0,000    1,000      1,000    1,000      1,000    1,000     1,000     iaríamos
                 1,000    0,000    1,000      1,000    1,000      1,000    1,000     1,000     iaríais
                 1,000    0,000    1,000      1,000    1,000      1,000    1,000     1,000     iarían
                 1,000    0,000    1,000      1,000    1,000      1,000    1,000     1,000     uaría
                 1,000    0,000    1,000      1,000    1,000      1,000    1,000     1,000     uarías
                 1,000    0,000    1,000      1,000    1,000      1,000    1,000     1,000     uaríamos
                 1,000    0,000    1,000      1,000    1,000      1,000    1,000     1,000     uaríais
                 1,000    0,000    1,000      1,000    1,000      1,000    1,000     1,000     uarían
                 1,000    0,000    1,000      1,000    1,000      1,000    1,000     1,000     ad
                 1,000    0,000    1,000      1,000    1,000      1,000    1,000     1,000     gad
                 1,000    0,000    1,000      1,000    1,000      1,000    1,000     1,000     iad
                 1,000    0,000    1,000      1,000    1,000      1,000    1,000     1,000     uad
                 1,000    0,000    1,000      1,000    1,000      1,000    1,000     1,000     ar
                 1,000    0,000    1,000      1,000    1,000      1,000    1,000     1,000     gar
                 1,000    0,000    1,000      1,000    1,000      1,000    1,000     1,000     iar
                 1,000    0,000    1,000      1,000    1,000      1,000    1,000     1,000     uar
                 1,000    0,000    1,000      1,000    1,000      1,000    1,000     1,000     ado
                 1,000    0,000    1,000      1,000    1,000      1,000    1,000     1,000     gado
                 1,000    0,000    1,000      1,000    1,000      1,000    1,000     1,000     iado
                 1,000    0,000    1,000      1,000    1,000      1,000    1,000     1,000     uado
                 1,000    0,000    1,000      1,000    1,000      1,000    1,000     1,000     ando
                 1,000    0,000    1,000      1,000    1,000      1,000    1,000     1,000     gando
                 1,000    0,000    1,000      1,000    1,000      1,000    1,000     1,000     iando
                 1,000    0,000    1,000      1,000    1,000      1,000    1,000     1,000     uando
                 1,000    0,000    1,000      1,000    1,000      1,000    1,000     1,000     e
                 1,000    0,000    1,000      1,000    1,000      1,000    1,000     1,000     es
                 1,000    0,000    1,000      1,000    1,000      1,000    1,000     1,000     emos
                 1,000    0,000    1,000      1,000    1,000      1,000    1,000     1,000     éis
                 1,000    0,000    1,000      1,000    1,000      1,000    1,000     1,000     en
                 1,000    0,000    1,000      1,000    1,000      1,000    1,000     1,000     gue
                 1,000    0,000    1,000      1,000    1,000      1,000    1,000     1,000     gues
                 1,000    0,000    1,000      1,000    1,000      1,000    1,000     1,000     guemos
                 1,000    0,000    1,000      1,000    1,000      1,000    1,000     1,000     guéis
                 1,000    0,000    1,000      1,000    1,000      1,000    1,000     1,000     guen
                 1,000    0,000    1,000      1,000    1,000      1,000    1,000     1,000     ie
                 1,000    0,000    1,000      1,000    1,000      1,000    1,000     1,000     ies
                 1,000    0,000    1,000      1,000    1,000      1,000    1,000     1,000     iemos
                 1,000    0,000    1,000      1,000    1,000      1,000    1,000     1,000     iéis
                 1,000    0,000    1,000      1,000    1,000      1,000    1,000     1,000     ien
                 1,000    0,000    1,000      1,000    1,000      1,000    1,000     1,000     ue
                 1,000    0,000    1,000      1,000    1,000      1,000    1,000     1,000     ues
                 1,000    0,000    1,000      1,000    1,000      1,000    1,000     1,000     uemos
                 1,000    0,000    1,000      1,000    1,000      1,000    1,000     1,000     uéis
                 1,000    0,000    1,000      1,000    1,000      1,000    1,000     1,000     uen
                 1,000    0,000    1,000      1,000    1,000      1,000    1,000     1,000     ara
                 1,000    0,000    1,000      1,000    1,000      1,000    1,000     1,000     aras
                 1,000    0,000    1,000      1,000    1,000      1,000    1,000     1,000     áramos
                 1,000    0,000    1,000      1,000    1,000      1,000    1,000     1,000     arais
                 1,000    0,000    1,000      1,000    1,000      1,000    1,000     1,000     aran
                 1,000    0,000    1,000      1,000    1,000      1,000    1,000     1,000     gara
                 1,000    0,000    1,000      1,000    1,000      1,000    1,000     1,000     garas
                 1,000    0,000    1,000      1,000    1,000      1,000    1,000     1,000     gáramos
                 1,000    0,000    1,000      1,000    1,000      1,000    1,000     1,000     garais
                 1,000    0,000    1,000      1,000    1,000      1,000    1,000     1,000     garan
                 1,000    0,000    1,000      1,000    1,000      1,000    1,000     1,000     iara
                 1,000    0,000    1,000      1,000    1,000      1,000    1,000     1,000     iaras
                 1,000    0,000    1,000      1,000    1,000      1,000    1,000     1,000     iáramos
                 1,000    0,000    1,000      1,000    1,000      1,000    1,000     1,000     iarais
                 1,000    0,000    1,000      1,000    1,000      1,000    1,000     1,000     iaran
                 1,000    0,000    1,000      1,000    1,000      1,000    1,000     1,000     uara
                 1,000    0,000    1,000      1,000    1,000      1,000    1,000     1,000     uaras
                 1,000    0,000    1,000      1,000    1,000      1,000    1,000     1,000     uáramos
                 1,000    0,000    1,000      1,000    1,000      1,000    1,000     1,000     uarais
                 1,000    0,000    1,000      1,000    1,000      1,000    1,000     1,000     uaran
                 1,000    0,000    1,000      1,000    1,000      1,000    1,000     1,000     are
                 1,000    0,000    1,000      1,000    1,000      1,000    1,000     1,000     ares
                 1,000    0,000    1,000      1,000    1,000      1,000    1,000     1,000     áremos
                 1,000    0,000    1,000      1,000    1,000      1,000    1,000     1,000     areis
                 1,000    0,000    1,000      1,000    1,000      1,000    1,000     1,000     aren
                 1,000    0,000    1,000      1,000    1,000      1,000    1,000     1,000     gare
                 1,000    0,000    1,000      1,000    1,000      1,000    1,000     1,000     gares
                 1,000    0,000    1,000      1,000    1,000      1,000    1,000     1,000     gáremos
                 1,000    0,000    1,000      1,000    1,000      1,000    1,000     1,000     gareis
                 1,000    0,000    1,000      1,000    1,000      1,000    1,000     1,000     garen
                 1,000    0,000    1,000      1,000    1,000      1,000    1,000     1,000     iare
                 1,000    0,000    1,000      1,000    1,000      1,000    1,000     1,000     iares
                 1,000    0,000    1,000      1,000    1,000      1,000    1,000     1,000     iáremos
                 1,000    0,000    1,000      1,000    1,000      1,000    1,000     1,000     iareis
                 1,000    0,000    1,000      1,000    1,000      1,000    1,000     1,000     iaren
                 1,000    0,000    1,000      1,000    1,000      1,000    1,000     1,000     uare
                 1,000    0,000    1,000      1,000    1,000      1,000    1,000     1,000     uares
                 1,000    0,000    1,000      1,000    1,000      1,000    1,000     1,000     uáremos
                 1,000    0,000    1,000      1,000    1,000      1,000    1,000     1,000     uareis
                 1,000    0,000    1,000      1,000    1,000      1,000    1,000     1,000     uaren
                 1,000    0,000    1,000      1,000    1,000      1,000    1,000     1,000     ía
                 1,000    0,000    1,000      1,000    1,000      1,000    1,000     1,000     ías
                 1,000    0,000    1,000      1,000    1,000      1,000    1,000     1,000     íamos
                 1,000    0,000    1,000      1,000    1,000      1,000    1,000     1,000     íais
                 1,000    0,000    1,000      1,000    1,000      1,000    1,000     1,000     ían
                 1,000    0,000    1,000      1,000    1,000      1,000    1,000     1,000     í
                 1,000    0,000    1,000      1,000    1,000      1,000    1,000     1,000     iste
                 1,000    0,000    1,000      1,000    1,000      1,000    1,000     1,000     imos
                 1,000    0,000    1,000      1,000    1,000      1,000    1,000     1,000     isteis
                 1,000    0,000    1,000      1,000    1,000      1,000    1,000     1,000     ieron
                 1,000    0,000    1,000      1,000    1,000      1,000    1,000     1,000     eré
                 1,000    0,000    1,000      1,000    1,000      1,000    1,000     1,000     erás
                 1,000    0,000    1,000      1,000    1,000      1,000    1,000     1,000     erá
                 1,000    0,000    1,000      1,000    1,000      1,000    1,000     1,000     eremos
                 1,000    0,000    1,000      1,000    1,000      1,000    1,000     1,000     eréis
                 1,000    0,000    1,000      1,000    1,000      1,000    1,000     1,000     erán
                 1,000    0,000    1,000      1,000    1,000      1,000    1,000     1,000     ería
                 1,000    0,000    1,000      1,000    1,000      1,000    1,000     1,000     erías
                 1,000    0,000    1,000      1,000    1,000      1,000    1,000     1,000     eríamos
                 1,000    0,000    1,000      1,000    1,000      1,000    1,000     1,000     eríais
                 1,000    0,000    1,000      1,000    1,000      1,000    1,000     1,000     erían
                 1,000    0,000    1,000      1,000    1,000      1,000    1,000     1,000     ed
                 1,000    0,000    1,000      1,000    1,000      1,000    1,000     1,000     er
                 1,000    0,000    1,000      1,000    1,000      1,000    1,000     1,000     ido
                 1,000    0,000    1,000      1,000    1,000      1,000    1,000     1,000     iendo
                 1,000    0,000    1,000      1,000    1,000      1,000    1,000     1,000     iera
                 1,000    0,000    1,000      1,000    1,000      1,000    1,000     1,000     ieras
                 1,000    0,000    1,000      1,000    1,000      1,000    1,000     1,000     iéramos
                 1,000    0,000    1,000      1,000    1,000      1,000    1,000     1,000     ierais
                 1,000    0,000    1,000      1,000    1,000      1,000    1,000     1,000     ieran
                 1,000    0,000    1,000      1,000    1,000      1,000    1,000     1,000     iere
                 1,000    0,000    1,000      1,000    1,000      1,000    1,000     1,000     ieres
                 1,000    0,000    1,000      1,000    1,000      1,000    1,000     1,000     iéremos
                 1,000    0,000    1,000      1,000    1,000      1,000    1,000     1,000     iereis
                 1,000    0,000    1,000      1,000    1,000      1,000    1,000     1,000     ieren
                 1,000    0,000    1,000      1,000    1,000      1,000    1,000     1,000     ís
                 1,000    0,000    1,000      1,000    1,000      1,000    1,000     1,000     iré
                 1,000    0,000    1,000      1,000    1,000      1,000    1,000     1,000     irás
                 1,000    0,000    1,000      1,000    1,000      1,000    1,000     1,000     irá
                 1,000    0,000    1,000      1,000    1,000      1,000    1,000     1,000     iremos
                 1,000    0,000    1,000      1,000    1,000      1,000    1,000     1,000     iréis
                 1,000    0,000    1,000      1,000    1,000      1,000    1,000     1,000     irán
                 1,000    0,000    1,000      1,000    1,000      1,000    1,000     1,000     iría
                 1,000    0,000    1,000      1,000    1,000      1,000    1,000     1,000     irías
                 1,000    0,000    1,000      1,000    1,000      1,000    1,000     1,000     iríamos
                 1,000    0,000    1,000      1,000    1,000      1,000    1,000     1,000     iríais
                 1,000    0,000    1,000      1,000    1,000      1,000    1,000     1,000     irían
                 1,000    0,000    1,000      1,000    1,000      1,000    1,000     1,000     id
                 1,000    0,000    1,000      1,000    1,000      1,000    1,000     1,000     ir
                 1,000    0,000    1,000      1,000    1,000      1,000    1,000     1,000     andas
                 1,000    0,000    1,000      1,000    1,000      1,000    1,000     1,000     anda
                 1,000    0,000    1,000      1,000    1,000      1,000    1,000     1,000     andamos
                 1,000    0,000    1,000      1,000    1,000      1,000    1,000     1,000     andáis
                 1,000    0,000    1,000      1,000    1,000      1,000    1,000     1,000     andan
                 1,000    0,000    1,000      1,000    1,000      1,000    1,000     1,000     desando
                 1,000    0,000    1,000      1,000    1,000      1,000    1,000     1,000     desandas
                 1,000    0,000    1,000      1,000    1,000      1,000    1,000     1,000     desanda
                 1,000    0,000    1,000      1,000    1,000      1,000    1,000     1,000     desandamos
                 1,000    0,000    1,000      1,000    1,000      1,000    1,000     1,000     desandáis
                 1,000    0,000    1,000      1,000    1,000      1,000    1,000     1,000     desandan
                 1,000    0,000    1,000      1,000    1,000      1,000    1,000     1,000     doy
                 1,000    0,000    1,000      1,000    1,000      1,000    1,000     1,000     das
                 1,000    0,000    1,000      1,000    1,000      1,000    1,000     1,000     da
                 1,000    0,000    1,000      1,000    1,000      1,000    1,000     1,000     damos
                 1,000    0,000    1,000      1,000    1,000      1,000    1,000     1,000     dáis
                 1,000    0,000    1,000      1,000    1,000      1,000    1,000     1,000     dan
                 1,000    0,000    1,000      1,000    1,000      1,000    1,000     1,000     andaba
                 1,000    0,000    1,000      1,000    1,000      1,000    1,000     1,000     andabas
                 1,000    0,000    1,000      1,000    1,000      1,000    1,000     1,000     andábamos
                 1,000    0,000    1,000      1,000    1,000      1,000    1,000     1,000     andabais
                 1,000    0,000    1,000      1,000    1,000      1,000    1,000     1,000     andaban
                 1,000    0,000    1,000      1,000    1,000      1,000    1,000     1,000     desandaba
                 1,000    0,000    1,000      1,000    1,000      1,000    1,000     1,000     desandabas
                 1,000    0,000    1,000      1,000    1,000      1,000    1,000     1,000     desandábamos
                 1,000    0,000    1,000      1,000    1,000      1,000    1,000     1,000     desandabais
                 1,000    0,000    1,000      1,000    1,000      1,000    1,000     1,000     desandaban
                 1,000    0,000    1,000      1,000    1,000      1,000    1,000     1,000     daba
                 1,000    0,000    1,000      1,000    1,000      1,000    1,000     1,000     dabas
                 1,000    0,000    1,000      1,000    1,000      1,000    1,000     1,000     dábamos
                 1,000    0,000    1,000      1,000    1,000      1,000    1,000     1,000     dabais
                 1,000    0,000    1,000      1,000    1,000      1,000    1,000     1,000     daban
                 1,000    0,000    1,000      1,000    1,000      1,000    1,000     1,000     anduve
                 1,000    0,000    1,000      1,000    1,000      1,000    1,000     1,000     anduviste
                 1,000    0,000    1,000      1,000    1,000      1,000    1,000     1,000     anduvo
                 1,000    0,000    1,000      1,000    1,000      1,000    1,000     1,000     anduvimos
                 1,000    0,000    1,000      1,000    1,000      1,000    1,000     1,000     anduvisteis
                 1,000    0,000    1,000      1,000    1,000      1,000    1,000     1,000     anduvieron
                 1,000    0,000    1,000      1,000    1,000      1,000    1,000     1,000     di
                 1,000    0,000    1,000      1,000    1,000      1,000    1,000     1,000     diste
                 1,000    0,000    1,000      1,000    1,000      1,000    1,000     1,000     dio
                 1,000    0,000    1,000      1,000    1,000      1,000    1,000     1,000     dimos
                 1,000    0,000    1,000      1,000    1,000      1,000    1,000     1,000     disteis
                 1,000    0,000    1,000      1,000    1,000      1,000    1,000     1,000     dieron
                 1,000    0,000    1,000      1,000    1,000      1,000    1,000     1,000     andaré
                 1,000    0,000    1,000      1,000    1,000      1,000    1,000     1,000     andarás
                 1,000    0,000    1,000      1,000    1,000      1,000    1,000     1,000     andará
                 1,000    0,000    1,000      1,000    1,000      1,000    1,000     1,000     andaremos
                 1,000    0,000    1,000      1,000    1,000      1,000    1,000     1,000     andaréis
                 1,000    0,000    1,000      1,000    1,000      1,000    1,000     1,000     andarán
                 1,000    0,000    1,000      1,000    1,000      1,000    1,000     1,000     desandaré
                 1,000    0,000    1,000      1,000    1,000      1,000    1,000     1,000     desandarás
                 1,000    0,000    1,000      1,000    1,000      1,000    1,000     1,000     desandará
                 1,000    0,000    1,000      1,000    1,000      1,000    1,000     1,000     desandaremos
                 1,000    0,000    1,000      1,000    1,000      1,000    1,000     1,000     desandaréis
                 1,000    0,000    1,000      1,000    1,000      1,000    1,000     1,000     desandarán
                 1,000    0,000    1,000      1,000    1,000      1,000    1,000     1,000     daré
                 1,000    0,000    1,000      1,000    1,000      1,000    1,000     1,000     darás
                 1,000    0,000    1,000      1,000    1,000      1,000    1,000     1,000     dará
                 1,000    0,000    1,000      1,000    1,000      1,000    1,000     1,000     daremos
                 1,000    0,000    1,000      1,000    1,000      1,000    1,000     1,000     daréis
                 1,000    0,000    1,000      1,000    1,000      1,000    1,000     1,000     darán
                 1,000    0,000    1,000      1,000    1,000      1,000    1,000     1,000     andaría
                 1,000    0,000    1,000      1,000    1,000      1,000    1,000     1,000     andarías
                 1,000    0,000    1,000      1,000    1,000      1,000    1,000     1,000     andaríamos
                 1,000    0,000    1,000      1,000    1,000      1,000    1,000     1,000     andaríais
                 1,000    0,000    1,000      1,000    1,000      1,000    1,000     1,000     andarían
                 1,000    0,000    1,000      1,000    1,000      1,000    1,000     1,000     desandaría
                 1,000    0,000    1,000      1,000    1,000      1,000    1,000     1,000     desandarías
                 1,000    0,000    1,000      1,000    1,000      1,000    1,000     1,000     desandaríamos
                 1,000    0,000    1,000      1,000    1,000      1,000    1,000     1,000     desandaríais
                 1,000    0,000    1,000      1,000    1,000      1,000    1,000     1,000     desandarían
                 1,000    0,000    1,000      1,000    1,000      1,000    1,000     1,000     daría
                 1,000    0,000    1,000      1,000    1,000      1,000    1,000     1,000     darías
                 1,000    0,000    1,000      1,000    1,000      1,000    1,000     1,000     daríamos
                 1,000    0,000    1,000      1,000    1,000      1,000    1,000     1,000     daríais
                 1,000    0,000    1,000      1,000    1,000      1,000    1,000     1,000     darían
                 1,000    0,000    1,000      1,000    1,000      1,000    1,000     1,000     andad
                 1,000    0,000    1,000      1,000    1,000      1,000    1,000     1,000     desandad
                 1,000    0,000    1,000      1,000    1,000      1,000    1,000     1,000     dad
                 1,000    0,000    1,000      1,000    1,000      1,000    1,000     1,000     andar
                 1,000    0,000    1,000      1,000    1,000      1,000    1,000     1,000     desandar
                 1,000    0,000    1,000      1,000    1,000      1,000    1,000     1,000     dar
                 1,000    0,000    1,000      1,000    1,000      1,000    1,000     1,000     andado
                 1,000    0,000    1,000      1,000    1,000      1,000    1,000     1,000     desandado
                 1,000    0,000    1,000      1,000    1,000      1,000    1,000     1,000     dado
                 1,000    0,000    1,000      1,000    1,000      1,000    1,000     1,000     andando
                 1,000    0,000    1,000      1,000    1,000      1,000    1,000     1,000     desandando
                 1,000    0,000    1,000      1,000    1,000      1,000    1,000     1,000     dando
                 1,000    0,000    1,000      1,000    1,000      1,000    1,000     1,000     ande
                 1,000    0,000    1,000      1,000    1,000      1,000    1,000     1,000     andes
                 1,000    0,000    1,000      1,000    1,000      1,000    1,000     1,000     andemos
                 1,000    0,000    1,000      1,000    1,000      1,000    1,000     1,000     andéis
                 1,000    0,000    1,000      1,000    1,000      1,000    1,000     1,000     anden
                 1,000    0,000    1,000      1,000    1,000      1,000    1,000     1,000     desande
                 1,000    0,000    1,000      1,000    1,000      1,000    1,000     1,000     desandes
                 1,000    0,000    1,000      1,000    1,000      1,000    1,000     1,000     desandemos
                 1,000    0,000    1,000      1,000    1,000      1,000    1,000     1,000     desandéis
                 1,000    0,000    1,000      1,000    1,000      1,000    1,000     1,000     desanden
                 1,000    0,000    1,000      1,000    1,000      1,000    1,000     1,000     dé
                 1,000    0,000    1,000      1,000    1,000      1,000    1,000     1,000     des
                 1,000    0,000    1,000      1,000    1,000      1,000    1,000     1,000     demos
                 1,000    0,000    1,000      1,000    1,000      1,000    1,000     1,000     deis
                 1,000    0,000    1,000      1,000    1,000      1,000    1,000     1,000     den
                 1,000    0,000    1,000      1,000    1,000      1,000    1,000     1,000     anduviera
                 1,000    0,000    1,000      1,000    1,000      1,000    1,000     1,000     anduvieras
                 1,000    0,000    1,000      1,000    1,000      1,000    1,000     1,000     anduviéramos
                 1,000    0,000    1,000      1,000    1,000      1,000    1,000     1,000     anduvierais
                 1,000    0,000    1,000      1,000    1,000      1,000    1,000     1,000     anduvieran
                 1,000    0,000    1,000      1,000    1,000      1,000    1,000     1,000     desanduviera
                 1,000    0,000    1,000      1,000    1,000      1,000    1,000     1,000     desanduvieras
                 1,000    0,000    1,000      1,000    1,000      1,000    1,000     1,000     desanduviéramos
                 1,000    0,000    1,000      1,000    1,000      1,000    1,000     1,000     desanduvierais
                 1,000    0,000    1,000      1,000    1,000      1,000    1,000     1,000     desanduvieran
                 1,000    0,000    1,000      1,000    1,000      1,000    1,000     1,000     diera
                 1,000    0,000    1,000      1,000    1,000      1,000    1,000     1,000     dieras
                 1,000    0,000    1,000      1,000    1,000      1,000    1,000     1,000     diéramos
                 1,000    0,000    1,000      1,000    1,000      1,000    1,000     1,000     dierais
                 1,000    0,000    1,000      1,000    1,000      1,000    1,000     1,000     dieran
                 1,000    0,000    1,000      1,000    1,000      1,000    1,000     1,000     anduviere
                 1,000    0,000    1,000      1,000    1,000      1,000    1,000     1,000     anduvieres
                 1,000    0,000    1,000      1,000    1,000      1,000    1,000     1,000     anduviéremos
                 1,000    0,000    1,000      1,000    1,000      1,000    1,000     1,000     anduviereis
                 1,000    0,000    1,000      1,000    1,000      1,000    1,000     1,000     anduvieren
                 1,000    0,000    1,000      1,000    1,000      1,000    1,000     1,000     desanduviere
                 1,000    0,000    1,000      1,000    1,000      1,000    1,000     1,000     desanduvieres
                 1,000    0,000    1,000      1,000    1,000      1,000    1,000     1,000     desanduviéremos
                 1,000    0,000    1,000      1,000    1,000      1,000    1,000     1,000     desanduviereis
                 1,000    0,000    1,000      1,000    1,000      1,000    1,000     1,000     desanduvieren
                 1,000    0,000    1,000      1,000    1,000      1,000    1,000     1,000     diere
                 1,000    0,000    1,000      1,000    1,000      1,000    1,000     1,000     dieres
                 1,000    0,000    1,000      1,000    1,000      1,000    1,000     1,000     diéremos
                 1,000    0,000    1,000      1,000    1,000      1,000    1,000     1,000     diereis
                 1,000    0,000    1,000      1,000    1,000      1,000    1,000     1,000     dieren
                 1,000    0,000    1,000      1,000    1,000      1,000    1,000     1,000     caigo
                 1,000    0,000    1,000      1,000    1,000      1,000    1,000     1,000     caes
                 1,000    0,000    1,000      1,000    1,000      1,000    1,000     1,000     cae
                 1,000    0,000    1,000      1,000    1,000      1,000    1,000     1,000     caemos
                 1,000    0,000    1,000      1,000    1,000      1,000    1,000     1,000     caéis
                 1,000    0,000    1,000      1,000    1,000      1,000    1,000     1,000     caen
                 1,000    0,000    1,000      1,000    1,000      1,000    1,000     1,000     eo
                 1,000    0,000    1,000      1,000    1,000      1,000    1,000     1,000     ees
                 1,000    0,000    1,000      1,000    1,000      1,000    1,000     1,000     ee
                 1,000    0,000    1,000      1,000    1,000      1,000    1,000     1,000     eemos
                 1,000    0,000    1,000      1,000    1,000      1,000    1,000     1,000     eéis
                 1,000    0,000    1,000      1,000    1,000      1,000    1,000     1,000     een
                 1,000    0,000    1,000      1,000    1,000      1,000    1,000     1,000     ño
                 1,000    0,000    1,000      1,000    1,000      1,000    1,000     1,000     ñes
                 1,000    0,000    1,000      1,000    1,000      1,000    1,000     1,000     ñe
                 1,000    0,000    1,000      1,000    1,000      1,000    1,000     1,000     ñemos
                 1,000    0,000    1,000      1,000    1,000      1,000    1,000     1,000     ñéis
                 1,000    0,000    1,000      1,000    1,000      1,000    1,000     1,000     ñen
                 1,000    0,000    1,000      1,000    1,000      1,000    1,000     1,000     veo
                 1,000    0,000    1,000      1,000    1,000      1,000    1,000     1,000     ves
                 1,000    0,000    1,000      1,000    1,000      1,000    1,000     1,000     ve
                 1,000    0,000    1,000      1,000    1,000      1,000    1,000     1,000     vemos
                 1,000    0,000    1,000      1,000    1,000      1,000    1,000     1,000     véis
                 1,000    0,000    1,000      1,000    1,000      1,000    1,000     1,000     ven
                 1,000    0,000    1,000      1,000    1,000      1,000    1,000     1,000     caía
                 1,000    0,000    1,000      1,000    1,000      1,000    1,000     1,000     caías
                 1,000    0,000    1,000      1,000    1,000      1,000    1,000     1,000     caíamos
                 1,000    0,000    1,000      1,000    1,000      1,000    1,000     1,000     caíais
                 1,000    0,000    1,000      1,000    1,000      1,000    1,000     1,000     caían
